{"learner":{"attributes":{"scikit_learn":"{\"_estimator_type\": \"regressor\"}"},"feature_names":[],"feature_types":[],"gradient_booster":{"model":{"gbtree_model_param":{"num_parallel_tree":"1","num_trees":"50"},"iteration_indptr":[0,1,2,3,4,5,6,7,8,9,10,11,12,13,14,15,16,17,18,19,20,21,22,23,24,25,26,27,28,29,30,31,32,33,34,35,36,37,38,39,40,41,42,43,44,45,46,47,48,49,50],"tree_info":[0,0,0,0,0,0,0,0,0,0,0,0,0,0,0,0,0,0,0,0,0,0,0,0,0,0,0,0,0,0,0,0,0,0,0,0,0,0,0,0,0,0,0,0,0,0,0,0,0,0],"trees":[{"base_weights":[2.2894469E-1,-9.184821E0,6.641823E0,-2.7531155E1,-6.6177635E0,2.473801E0,1.04262705E1,-3.4329376E0,-2.26954E1,-9.575975E0,-3.6586378E0,4.7267962E-1,4.1242437E0,8.422149E0,1.2233389E1,-2.3826506E0,-1.8387537E0,-1.2517405E1,-8.26665E0,-5.299713E0,-2.554278E0,-4.2792144E-1,1.3846616E0,3.3110259E0,5.195109E0,7.424858E0,9.4339067E-1,1.1506147E0,1.3256049E0,-1.4460355E0,-1.1599925E0,-9.126153E-1,-7.492444E-1,-5.945309E-1,-4.5521885E-1,-3.2432535E-1,-2.0415269E-1,-8.7539315E-2,2.906728E-3,1.008059E-1,1.88462E-1,2.908729E-1,3.78763E-1,4.6795702E-1,5.654264E-1,6.8513465E-1,7.807362E-1],"categories":[],"categories_nodes":[],"categories_segments":[],"categories_sizes":[],"default_left":[0,0,0,0,0,0,0,0,0,0,0,0,0,0,0,0,0,0,0,0,0,0,0,0,0,0,0,0,0,0,0,0,0,0,0,0,0,0,0,0,0,0,0,0,0,0,0],"id":0,"left_children":[1,3,5,7,9,11,13,-1,15,17,19,21,23,25,27,-1,-1,29,31,33,35,37,39,41,43,45,-1,-1,-1,-1,-1,-1,-1,-1,-1,-1,-1,-1,-1,-1,-1,-1,-1,-1,-1,-1,-1],"loss_changes":[2.601321E5,8.204759E4,4.040211E4,6.2560312E3,1.3384422E4,4.0306914E3,4.760875E3,0E0,1.8558594E2,2.8466094E3,1.3783379E3,4.5478903E2,5.653955E2,5.7572266E2,3.710547E2,0E0,0E0,2.4939453E2,2.8630078E2,1.2157715E2,1.562378E2,5.707802E1,4.9878784E1,6.241748E1,4.147705E1,1.824414E1,0E0,0E0,0E0,0E0,0E0,0E0,0E0,0E0,0E0,0E0,0E0,0E0,0E0,0E0,0E0,0E0,0E0,0E0,0E0,0E0,0E0],"parents":[2147483647,0,0,1,1,2,2,3,3,4,4,5,5,6,6,8,8,9,9,10,10,11,11,12,12,13,13,14,14,17,17,18,18,19,19,20,20,21,21,22,22,23,23,24,24,25,25],"right_children":[2,4,6,8,10,12,14,-1,16,18,20,22,24,26,28,-1,-1,30,32,34,36,38,40,42,44,46,-1,-1,-1,-1,-1,-1,-1,-1,-1,-1,-1,-1,-1,-1,-1,-1,-1,-1,-1,-1,-1],"split_conditions":[-1.10925674E-1,-1.6825897E0,6.454376E-1,-2.6943483E0,-6.3153934E-1,2.4269871E-1,1.022637E0,-3.4329376E0,-2.0558598E0,-1.0146325E0,-3.7614396E-1,5.606362E-2,4.293338E-1,8.418956E-1,1.2249887E0,-2.3826506E0,-1.8387537E0,-1.2700279E0,-8.083516E-1,-5.0384164E-1,-2.4844627E-1,-3.234248E-2,1.5429261E-1,3.4092772E-1,5.177399E-1,7.338437E-1,9.4339067E-1,1.1506147E0,1.3256049E0,-1.4460355E0,-1.1599925E0,-9.126153E-1,-7.492444E-1,-5.945309E-1,-4.5521885E-1,-3.2432535E-1,-2.0415269E-1,-8.7539315E-2,2.906728E-3,1.008059E-1,1.88462E-1,2.908729E-1,3.78763E-1,4.6795702E-1,5.654264E-1,6.8513465E-1,7.807362E-1],"split_indices":[16,16,16,16,16,16,16,0,16,16,16,16,16,16,16,0,0,16,16,16,16,16,16,16,16,16,0,0,0,0,0,0,0,0,0,0,0,0,0,0,0,0,0,0,0,0,0],"split_type":[0,0,0,0,0,0,0,0,0,0,0,0,0,0,0,0,0,0,0,0,0,0,0,0,0,0,0,0,0,0,0,0,0,0,0,0,0,0,0,0,0,0,0,0,0,0,0],"sum_hessian":[4.307E3,1.745E3,2.562E3,2.13E2,1.532E3,1.22E3,1.342E3,8.6E1,1.27E2,7.65E2,7.67E2,5.52E2,6.68E2,6.39E2,7.03E2,9.7E1,3E1,2.33E2,5.32E2,3.07E2,4.6E2,2.78E2,2.74E2,3.82E2,2.86E2,3.26E2,3.13E2,4.18E2,2.85E2,7E1,1.63E2,2.47E2,2.85E2,1.61E2,1.46E2,1.94E2,2.66E2,1.4E2,1.38E2,1.58E2,1.16E2,2.11E2,1.71E2,1.4E2,1.46E2,1.38E2,1.88E2],"tree_param":{"num_deleted":"0","num_feature":"17","num_nodes":"47","size_leaf_vector":"1"}},{"base_weights":[-1.3773634E-1,-9.638424E0,5.353127E0,-2.5292921E1,-6.7438993E0,1.5266259E0,9.293695E0,-3.1951056E0,-2.1118834E1,-9.098921E0,-4.289905E0,-3.795435E-1,3.4063706E0,7.3030043E0,1.0846933E1,-2.302027E0,-1.8387743E0,-1.14340315E1,-7.9013014E0,-5.5385284E0,-3.101757E0,-1.244495E0,7.070555E-1,2.5841906E0,4.3272543E0,6.42509E0,8.131069E0,9.9706185E-1,1.1668191E1,-1.3616098E0,-1.0817864E0,-8.702118E-1,-7.3317677E-1,-5.94691E-1,-4.801529E-1,-3.659845E-1,-2.5418803E-1,-1.7273124E-1,-7.4010804E-2,2.3079125E-2,1.1134926E-1,2.0023087E-1,2.9657993E-1,3.786013E-1,4.7742492E-1,5.9307724E-1,6.792044E-1,7.620291E-1,8.558057E-1,1.1210965E0,1.2499281E0],"categories":[],"categories_nodes":[],"categories_segments":[],"categories_sizes":[],"default_left":[0,0,0,0,0,0,0,0,0,0,0,0,0,0,0,0,0,0,0,0,0,0,0,0,0,0,0,0,0,0,0,0,0,0,0,0,0,0,0,0,0,0,0,0,0,0,0,0,0,0,0],"id":1,"left_children":[1,3,5,7,9,11,13,-1,15,17,19,21,23,25,27,-1,-1,29,31,33,35,37,39,41,43,45,47,-1,49,-1,-1,-1,-1,-1,-1,-1,-1,-1,-1,-1,-1,-1,-1,-1,-1,-1,-1,-1,-1,-1,-1],"loss_changes":[2.2760395E5,7.2238516E4,4.167811E4,6.2453438E3,7.7628945E3,5.0319814E3,4.1321094E3,0E0,3.868125E2,1.8336992E3,9.6641406E2,6.568991E2,5.2411035E2,3.839375E2,4.3278125E2,0E0,0E0,1.6328711E2,1.4508789E2,6.8359375E1,9.755835E1,9.345355E1,5.9750168E1,7.7552734E1,6.2245605E1,1.3410156E1,1.3046875E0,0E0,7.3085938E0,0E0,0E0,0E0,0E0,0E0,0E0,0E0,0E0,0E0,0E0,0E0,0E0,0E0,0E0,0E0,0E0,0E0,0E0,0E0,0E0,0E0,0E0],"parents":[2147483647,0,0,1,1,2,2,3,3,4,4,5,5,6,6,8,8,9,9,10,10,11,11,12,12,13,13,14,14,17,17,18,18,19,19,20,20,21,21,22,22,23,23,24,24,25,25,26,26,28,28],"right_children":[2,4,6,8,10,12,14,-1,16,18,20,22,24,26,28,-1,-1,30,32,34,36,38,40,42,44,46,48,-1,50,-1,-1,-1,-1,-1,-1,-1,-1,-1,-1,-1,-1,-1,-1,-1,-1,-1,-1,-1,-1,-1,-1],"split_conditions":[-2.1897757E-1,-1.6825897E0,6.06146E-1,-2.920275E0,-7.199455E-1,1.8376131E-1,9.99062E-1,-3.1951056E0,-2.2817864E0,-1.0441011E0,-4.5472717E-1,-1.2696679E-2,3.9004222E-1,8.02604E-1,1.1856971E0,-2.302027E0,-1.8387743E0,-1.3289653E0,-8.6728895E-1,-5.765311E-1,-3.2702947E-1,-1.3057147E-1,8.553232E-2,2.8199032E-1,4.784483E-1,7.04375E-1,9.00833E-1,9.9706185E-1,1.3035719E0,-1.3616098E0,-1.0817864E0,-8.702118E-1,-7.3317677E-1,-5.94691E-1,-4.801529E-1,-3.659845E-1,-2.5418803E-1,-1.7273124E-1,-7.4010804E-2,2.3079125E-2,1.1134926E-1,2.0023087E-1,2.9657993E-1,3.786013E-1,4.7742492E-1,5.9307724E-1,6.792044E-1,7.620291E-1,8.558057E-1,1.1210965E0,1.2499281E0],"split_indices":[16,16,16,16,16,16,16,0,16,16,16,16,16,16,16,0,0,16,16,16,16,16,16,16,16,16,16,0,16,0,0,0,0,0,0,0,0,0,0,0,0,0,0,0,0,0,0,0,0,0,0],"split_type":[0,0,0,0,0,0,0,0,0,0,0,0,0,0,0,0,0,0,0,0,0,0,0,0,0,0,0,0,0,0,0,0,0,0,0,0,0,0,0,0,0,0,0,0,0,0,0,0,0,0,0],"sum_hessian":[4.361E3,1.597E3,2.764E3,2.48E2,1.349E3,1.403E3,1.361E3,9.3E1,1.55E2,6.87E2,6.62E2,6.97E2,7.06E2,5.99E2,7.62E2,8.7E1,6.8E1,2.3E2,4.57E2,3.21E2,3.41E2,3.88E2,3.09E2,3.75E2,3.31E2,2.95E2,3.04E2,3.75E2,3.87E2,4.6E1,1.84E2,1.84E2,2.73E2,2.02E2,1.19E2,1.68E2,1.73E2,1.97E2,1.91E2,1.43E2,1.66E2,1.51E2,2.24E2,1.54E2,1.77E2,1.33E2,1.62E2,1.47E2,1.57E2,2.59E2,1.28E2],"tree_param":{"num_deleted":"0","num_feature":"17","num_nodes":"51","size_leaf_vector":"1"}},{"base_weights":[-1.0242025E-1,-8.166305E0,5.06189E0,-2.2830921E1,-5.7765017E0,1.6694764E0,8.345416E0,-2.8608909E0,-1.9020147E1,-7.938726E0,-3.3671217E0,-4.8689004E-2,3.2114263E0,6.7610335E0,9.885235E0,-2.0376797E0,-1.5797539E0,-9.896041E0,-6.7324357E0,-4.595126E0,-2.399937E0,-8.401928E-1,7.455164E-1,2.510381E0,4.1137466E0,5.9998097E0,7.676825E-1,9.2082226E-1,1.0557021E0,-1.1260289E0,-8.898307E-1,-7.1887E-1,-6.1372733E-1,-5.0281304E-1,-3.9100206E-1,-2.9532316E-1,-1.9717817E-1,-1.1714584E-1,-4.3013703E-2,3.748238E-2,1.20151855E-1,2.0547752E-1,2.8994772E-1,3.647109E-1,4.4663355E-1,5.5079484E-1,6.342725E-1],"categories":[],"categories_nodes":[],"categories_segments":[],"categories_sizes":[],"default_left":[0,0,0,0,0,0,0,0,0,0,0,0,0,0,0,0,0,0,0,0,0,0,0,0,0,0,0,0,0,0,0,0,0,0,0,0,0,0,0,0,0,0,0,0,0,0,0],"id":2,"left_children":[1,3,5,7,9,11,13,-1,15,17,19,21,23,25,27,-1,-1,29,31,33,35,37,39,41,43,45,-1,-1,-1,-1,-1,-1,-1,-1,-1,-1,-1,-1,-1,-1,-1,-1,-1,-1,-1,-1,-1],"loss_changes":[1.8219394E5,5.9725906E4,2.9694E4,4.7183047E3,7.6314062E3,3.4787202E3,3.2389062E3,0E0,3.2077734E2,1.7608594E3,8.168037E2,3.9162592E2,4.2740918E2,4.2170898E2,2.1432812E2,0E0,0E0,2.986211E2,8.676953E1,7.111572E1,8.704004E1,4.1877365E1,5.212001E1,6.3533936E1,3.3234863E1,2.7639648E1,0E0,0E0,0E0,0E0,0E0,0E0,0E0,0E0,0E0,0E0,0E0,0E0,0E0,0E0,0E0,0E0,0E0,0E0,0E0,0E0,0E0],"parents":[2147483647,0,0,1,1,2,2,3,3,4,4,5,5,6,6,8,8,9,9,10,10,11,11,12,12,13,13,14,14,17,17,18,18,19,19,20,20,21,21,22,22,23,23,24,24,25,25],"right_children":[2,4,6,8,10,12,14,-1,16,18,20,22,24,26,28,-1,-1,30,32,34,36,38,40,42,44,46,-1,-1,-1,-1,-1,-1,-1,-1,-1,-1,-1,-1,-1,-1,-1,-1,-1,-1,-1,-1,-1],"split_conditions":[-1.7968598E-1,-1.6825897E0,6.257918E-1,-2.920275E0,-6.7083097E-1,2.0340712E-1,1.0383536E0,-2.8608909E0,-2.1540887E0,-9.6551794E-1,-4.1543558E-1,6.949121E-3,4.0968803E-1,8.517185E-1,1.2053429E0,-2.0376797E0,-1.5797539E0,-1.2012676E0,-7.8870577E-1,-5.3331035E-1,-2.8773788E-1,-8.1456974E-2,1.15001015E-1,3.11459E-1,4.980941E-1,7.338437E-1,7.676825E-1,9.2082226E-1,1.0557021E0,-1.1260289E0,-8.898307E-1,-7.1887E-1,-6.1372733E-1,-5.0281304E-1,-3.9100206E-1,-2.9532316E-1,-1.9717817E-1,-1.1714584E-1,-4.3013703E-2,3.748238E-2,1.20151855E-1,2.0547752E-1,2.8994772E-1,3.647109E-1,4.4663355E-1,5.5079484E-1,6.342725E-1],"split_indices":[16,16,16,16,16,16,16,0,16,16,16,16,16,16,16,0,0,16,16,16,16,16,16,16,16,16,0,0,0,0,0,0,0,0,0,0,0,0,0,0,0,0,0,0,0,0,0],"split_type":[0,0,0,0,0,0,0,0,0,0,0,0,0,0,0,0,0,0,0,0,0,0,0,0,0,0,0,0,0,0,0,0,0,0,0,0,0,0,0,0,0,0,0,0,0,0,0],"sum_hessian":[4.373E3,1.707E3,2.666E3,2.38E2,1.469E3,1.312E3,1.354E3,9.2E1,1.46E2,7.73E2,6.96E2,6.21E2,6.91E2,6.7E2,6.84E2,9.9E1,4.7E1,2.92E2,4.81E2,3.05E2,3.91E2,3.11E2,3.1E2,3.91E2,3E2,3.7E2,3E2,3.48E2,3.36E2,1.19E2,1.73E2,2.66E2,2.15E2,1.83E2,1.22E2,1.68E2,2.23E2,1.71E2,1.4E2,1.72E2,1.38E2,1.83E2,2.08E2,1.34E2,1.66E2,1.59E2,2.11E2],"tree_param":{"num_deleted":"0","num_feature":"17","num_nodes":"47","size_leaf_vector":"1"}},{"base_weights":[1.6756713E-1,-6.326147E0,4.106707E0,-1.6076118E1,-4.07647E0,1.7468259E0,7.2550926E0,-6.8914304E0,-2.024604E1,5.5335677E-1,-5.325338E0,4.45193E0,2.8418127E-1,5.804881E0,8.077069E0,-4.1577387E0,-1.3926036E1,-2.5240519E1,-1.6498018E1,-1.016856E0,3.0749414E0,-7.706188E0,-4.574346E0,2.4348588E0,6.097812E0,-1.2408391E0,1.9940381E0,7.5404496E0,4.122298E0,8.470449E0,3.855597E0,-8.4233694E-2,-7.6385254E-1,-1.5353835E0,-7.653209E-1,-2.5583916E0,-1.1547377E0,-1.1813303E0,-1.7447872E0,1.8652439E-1,-3.1543338E-1,1.5583064E-1,4.3595192E-1,-6.8012345E-1,-9.3443054E-1,-2.3920958E-1,-5.725116E-1,4.0305296E-1,8.195521E-2,7.229035E-1,4.8712406E-1,-3.644909E-1,-8.651196E-2,1.259871E-1,3.3124468E-1,8.2913524E-1,6.678812E-1,4.735387E-1,2.3493719E-1,7.6391435E-1,8.8811016E-1,2.6823288E-1,5.881464E-1],"categories":[],"categories_nodes":[],"categories_segments":[],"categories_sizes":[],"default_left":[0,0,0,0,0,0,0,0,0,0,0,0,0,0,0,0,0,0,0,0,0,0,0,0,0,0,0,0,0,0,0,0,0,0,0,0,0,0,0,0,0,0,0,0,0,0,0,0,0,0,0,0,0,0,0,0,0,0,0,0,0,0,0],"id":3,"left_children":[1,3,5,7,9,11,13,15,17,19,21,23,25,27,29,31,33,35,37,39,41,43,45,47,49,51,53,55,57,59,61,-1,-1,-1,-1,-1,-1,-1,-1,-1,-1,-1,-1,-1,-1,-1,-1,-1,-1,-1,-1,-1,-1,-1,-1,-1,-1,-1,-1,-1,-1,-1,-1],"loss_changes":[1.1178348E5,3.6126047E4,2.0196422E4,1.1695E4,7.762449E3,6.155215E3,1.3418398E3,1.8266826E3,3.5521016E3,1.1355222E3,1.854666E3,1.7977969E3,2.638724E3,1.2100176E3,1.1978828E3,8.244608E2,1.2431494E2,1.230625E2,3.4565234E2,1.0962788E3,2.0751233E2,3.100166E2,2.0103867E3,6.3333875E2,3.8104297E2,4.8008868E2,4.5753052E2,7.920117E1,2.2583276E2,1.6326562E2,1.387215E2,0E0,0E0,0E0,0E0,0E0,0E0,0E0,0E0,0E0,0E0,0E0,0E0,0E0,0E0,0E0,0E0,0E0,0E0,0E0,0E0,0E0,0E0,0E0,0E0,0E0,0E0,0E0,0E0,0E0,0E0,0E0,0E0],"parents":[2147483647,0,0,1,1,2,2,3,3,4,4,5,5,6,6,7,7,8,8,9,9,10,10,11,11,12,12,13,13,14,14,15,15,16,16,17,17,18,18,19,19,20,20,21,21,22,22,23,23,24,24,25,25,26,26,27,27,28,28,29,29,30,30],"right_children":[2,4,6,8,10,12,14,16,18,20,22,24,26,28,30,32,34,36,38,40,42,44,46,48,50,52,54,56,58,60,62,-1,-1,-1,-1,-1,-1,-1,-1,-1,-1,-1,-1,-1,-1,-1,-1,-1,-1,-1,-1,-1,-1,-1,-1,-1,-1,-1,-1,-1,-1,-1,-1],"split_conditions":[-1.0264612E-1,-1.768679E0,7.026238E-1,-1.4216033E0,-9.619295E-1,-3.0354181E-2,9.224734E-1,1.584194E0,-2.5405393E0,-7.133793E-1,-8.3683044E-1,2.6618204E-1,4.0005106E-1,3.582888E-1,1.4164407E0,-3.2427526E0,-2.2395105E0,3.8227344E0,-9.695552E-1,-1.991802E0,1.0777023E0,-1.825238E-2,-4.147135E-2,-4.4526252E-1,-4.0146846E-1,-1.1862531E0,3.7429063E-4,-9.865844E-3,8.0598104E-1,1.0510904E0,1.3702264E0,-8.4233694E-2,-7.6385254E-1,-1.5353835E0,-7.653209E-1,-2.5583916E0,-1.1547377E0,-1.1813303E0,-1.7447872E0,1.8652439E-1,-3.1543338E-1,1.5583064E-1,4.3595192E-1,-6.8012345E-1,-9.3443054E-1,-2.3920958E-1,-5.725116E-1,4.0305296E-1,8.195521E-2,7.229035E-1,4.8712406E-1,-3.644909E-1,-8.651196E-2,1.259871E-1,3.3124468E-1,8.2913524E-1,6.678812E-1,4.735387E-1,2.3493719E-1,7.6391435E-1,8.8811016E-1,2.6823288E-1,5.881464E-1],"split_indices":[5,5,5,6,6,6,5,7,5,5,5,5,5,6,6,6,5,9,14,6,0,6,6,6,6,3,1,6,6,5,5,0,0,0,0,0,0,0,0,0,0,0,0,0,0,0,0,0,0,0,0,0,0,0,0,0,0,0,0,0,0,0,0],"split_type":[0,0,0,0,0,0,0,0,0,0,0,0,0,0,0,0,0,0,0,0,0,0,0,0,0,0,0,0,0,0,0,0,0,0,0,0,0,0,0,0,0,0,0,0,0,0,0,0,0,0,0,0,0,0,0,0,0,0,0,0,0,0,0],"sum_hessian":[4.368E3,1.649E3,2.719E3,3.08E2,1.341E3,1.555E3,1.164E3,9.7E1,2.11E2,2.85E2,1.056E3,5.45E2,1.01E3,4.24E2,7.4E2,7.1E1,2.6E1,8.8E1,1.23E2,1.76E2,1.09E2,2.51E2,8.05E2,2.46E2,2.99E2,5.34E2,4.76E2,2.07E2,2.17E2,6.76E2,6.4E1,3.7E1,3.4E1,2E1,6E0,8.5E1,3E0,2.3E1,1E2,7.5E1,1.01E2,5.1E1,5.8E1,1.65E2,8.6E1,2.79E2,5.26E2,1.23E2,1.23E2,1.53E2,1.46E2,7.1E1,4.63E2,3.07E2,1.69E2,1.06E2,1.01E2,1.6E2,5.7E1,2.3E2,4.46E2,4.2E1,2.2E1],"tree_param":{"num_deleted":"0","num_feature":"17","num_nodes":"63","size_leaf_vector":"1"}},{"base_weights":[2.3797018E-2,-6.3676662E0,4.3159733E0,-1.8974342E1,-4.608457E0,1.597519E0,6.906309E0,-2.3428462E0,-1.6007427E1,-6.8121347E0,-2.7805853E0,1.9847216E-1,2.7708871E0,5.6565385E0,8.193407E0,-1.7361428E0,-1.4365497E0,-9.062004E0,-5.9930773E0,-3.9061909E0,-1.8909488E0,-4.3018976E-1,8.395853E-1,2.230632E0,3.5243564E0,5.037908E0,6.445306E-1,7.7909344E-1,9.1034144E-1,-1.0844982E0,-8.3101714E-1,-6.943425E-1,-5.519809E-1,-4.25467E-1,-3.3256945E-1,-2.3989432E-1,-1.481999E-1,-7.095136E-2,-1.401937E-2,5.2227672E-2,1.19798794E-1,1.9366467E-1,2.571611E-1,3.2277903E-1,3.9311537E-1,4.6969143E-1,5.394399E-1],"categories":[],"categories_nodes":[],"categories_segments":[],"categories_sizes":[],"default_left":[0,0,0,0,0,0,0,0,0,0,0,0,0,0,0,0,0,0,0,0,0,0,0,0,0,0,0,0,0,0,0,0,0,0,0,0,0,0,0,0,0,0,0,0,0,0,0],"id":4,"left_children":[1,3,5,7,9,11,13,-1,15,17,19,21,23,25,27,-1,-1,29,31,33,35,37,39,41,43,45,-1,-1,-1,-1,-1,-1,-1,-1,-1,-1,-1,-1,-1,-1,-1,-1,-1,-1,-1,-1,-1],"loss_changes":[1.1895079E5,3.854625E4,1.8255164E4,2.4397578E3,6.143959E3,2.0793538E3,2.0898398E3,0E0,4.183203E1,1.2227363E3,8.3177E2,2.3372331E2,2.7260693E2,2.97875E2,1.67875E2,0E0,0E0,1.551875E2,1.915039E2,6.0495605E1,9.4084595E1,2.3634346E1,3.201317E1,3.5517822E1,2.1814697E1,2.1342773E1,0E0,0E0,0E0,0E0,0E0,0E0,0E0,0E0,0E0,0E0,0E0,0E0,0E0,0E0,0E0,0E0,0E0,0E0,0E0,0E0,0E0],"parents":[2147483647,0,0,1,1,2,2,3,3,4,4,5,5,6,6,8,8,9,9,10,10,11,11,12,12,13,13,14,14,17,17,18,18,19,19,20,20,21,21,22,22,23,23,24,24,25,25],"right_children":[2,4,6,8,10,12,14,-1,16,18,20,22,24,26,28,-1,-1,30,32,34,36,38,40,42,44,46,-1,-1,-1,-1,-1,-1,-1,-1,-1,-1,-1,-1,-1,-1,-1,-1,-1,-1,-1,-1,-1],"split_conditions":[-1.5021728E-1,-1.8692248E0,6.454376E-1,-2.920275E0,-7.101226E-1,2.4269871E-1,1.0678223E0,-2.3428462E0,-2.3701925E0,-1.1128614E0,-4.1543558E-1,3.641782E-2,4.391567E-1,8.811872E-1,1.2642803E0,-1.7361428E0,-1.4365497E0,-1.3879026E0,-9.0658057E-1,-5.5295616E-1,-2.6809207E-1,-5.1988278E-2,1.4446972E-1,3.5075063E-1,5.373857E-1,7.633124E-1,6.445306E-1,7.7909344E-1,9.1034144E-1,-1.0844982E0,-8.3101714E-1,-6.943425E-1,-5.519809E-1,-4.25467E-1,-3.3256945E-1,-2.3989432E-1,-1.481999E-1,-7.095136E-2,-1.401937E-2,5.2227672E-2,1.19798794E-1,1.9366467E-1,2.571611E-1,3.2277903E-1,3.9311537E-1,4.6969143E-1,5.394399E-1],"split_indices":[16,16,16,16,16,16,16,0,16,16,16,16,16,16,16,0,0,16,16,16,16,16,16,16,16,16,0,0,0,0,0,0,0,0,0,0,0,0,0,0,0,0,0,0,0,0,0],"split_type":[0,0,0,0,0,0,0,0,0,0,0,0,0,0,0,0,0,0,0,0,0,0,0,0,0,0,0,0,0,0,0,0,0,0,0,0,0,0,0,0,0,0,0,0,0,0,0],"sum_hessian":[4.334E3,1.741E3,2.593E3,2.12E2,1.529E3,1.266E3,1.327E3,8.2E1,1.3E2,6.92E2,8.37E2,5.78E2,6.88E2,6.76E2,6.51E2,6.6E1,6.4E1,1.82E2,5.1E2,3.68E2,4.69E2,2.92E2,2.86E2,4.03E2,2.85E2,3.83E2,2.93E2,4.58E2,1.93E2,5E1,1.32E2,1.65E2,3.45E2,2.26E2,1.42E2,2.07E2,2.62E2,1.48E2,1.44E2,1.53E2,1.33E2,2.2E2,1.83E2,1.7E2,1.15E2,2.03E2,1.8E2],"tree_param":{"num_deleted":"0","num_feature":"17","num_nodes":"47","size_leaf_vector":"1"}},{"base_weights":[8.018287E-2,-5.818465E0,3.9438567E0,-1.5856134E1,-4.0491834E0,1.3512608E0,6.179542E0,-2.0321394E1,-1.3172867E1,-5.6590915E0,-2.2770996E0,1.2978227E-1,2.390896E0,4.803002E0,7.204299E0,-2.206047E0,-1.7804272E0,-1.4233723E0,-1.0748278E0,-7.076664E0,-4.8629823E0,-3.0634575E0,-1.5386254E0,-3.75315E-1,7.1372706E-1,1.7736096E0,2.9145057E0,4.195747E0,5.3048954E0,6.46488E-1,7.72767E0,-7.795202E-1,-6.4028573E-1,-5.1850384E-1,-4.3141243E-1,-3.4839973E-1,-2.6014128E-1,-1.8201731E-1,-1.2324782E-1,-6.5690115E-2,-7.787473E-3,4.4540852E-2,9.389244E-2,1.5208738E-1,1.9961165E-1,2.5402626E-1,3.233433E-1,3.8270694E-1,4.35951E-1,5.017744E-1,5.6243294E-1,7.4158615E-1,8.551194E-1],"categories":[],"categories_nodes":[],"categories_segments":[],"categories_sizes":[],"default_left":[0,0,0,0,0,0,0,0,0,0,0,0,0,0,0,0,0,0,0,0,0,0,0,0,0,0,0,0,0,0,0,0,0,0,0,0,0,0,0,0,0,0,0,0,0,0,0,0,0,0,0,0,0],"id":5,"left_children":[1,3,5,7,9,11,13,15,17,19,21,23,25,27,29,-1,-1,-1,-1,31,33,35,37,39,41,43,45,47,49,-1,51,-1,-1,-1,-1,-1,-1,-1,-1,-1,-1,-1,-1,-1,-1,-1,-1,-1,-1,-1,-1,-1,-1],"loss_changes":[9.9275375E4,3.0553125E4,1.524732E4,2.8235312E3,4.1723027E3,1.548958E3,1.9586094E3,2.309375E1,2.688418E2,8.323086E2,4.0178027E2,1.6602917E2,2.0783105E2,1.6243652E2,2.6272656E2,0E0,0E0,0E0,0E0,8.274707E1,6.512891E1,5.6612793E1,2.9045471E1,2.5242867E1,1.5352615E1,1.4115906E1,3.4157715E1,1.6015625E-1,1.8642578E0,0E0,5.6759766E1,0E0,0E0,0E0,0E0,0E0,0E0,0E0,0E0,0E0,0E0,0E0,0E0,0E0,0E0,0E0,0E0,0E0,0E0,0E0,0E0,0E0,0E0],"parents":[2147483647,0,0,1,1,2,2,3,3,4,4,5,5,6,6,7,7,8,8,9,9,10,10,11,11,12,12,13,13,14,14,19,19,20,20,21,21,22,22,23,23,24,24,25,25,26,26,27,27,28,28,30,30],"right_children":[2,4,6,8,10,12,14,16,18,20,22,24,26,28,30,-1,-1,-1,-1,32,34,36,38,40,42,44,46,48,50,-1,52,-1,-1,-1,-1,-1,-1,-1,-1,-1,-1,-1,-1,-1,-1,-1,-1,-1,-1,-1,-1,-1,-1],"split_conditions":[-1.5021728E-1,-1.5254233E0,6.06146E-1,-2.6943483E0,-6.5118515E-1,2.1323001E-1,9.892391E-1,-2.3502703E-1,-2.0558598E0,-9.458721E-1,-3.4667528E-1,4.624072E-2,3.9004222E-1,7.829582E-1,1.1660513E0,-2.206047E0,-1.7804272E0,-1.4233723E0,-1.0748278E0,-1.1423302E0,-7.5923705E-1,-4.92175E-1,-2.2880048E-1,-5.1988278E-2,1.2482392E-1,3.016361E-1,4.784483E-1,6.847292E-1,9.00833E-1,6.46488E-1,1.3232177E0,-7.795202E-1,-6.4028573E-1,-5.1850384E-1,-4.3141243E-1,-3.4839973E-1,-2.6014128E-1,-1.8201731E-1,-1.2324782E-1,-6.5690115E-2,-7.787473E-3,4.4540852E-2,9.389244E-2,1.5208738E-1,1.9961165E-1,2.5402626E-1,3.233433E-1,3.8270694E-1,4.35951E-1,5.017744E-1,5.6243294E-1,7.4158615E-1,8.551194E-1],"split_indices":[16,16,16,16,16,16,16,13,16,16,16,16,16,16,16,0,0,0,0,16,16,16,16,16,16,16,16,16,16,0,16,0,0,0,0,0,0,0,0,0,0,0,0,0,0,0,0,0,0,0,0,0,0],"split_type":[0,0,0,0,0,0,0,0,0,0,0,0,0,0,0,0,0,0,0,0,0,0,0,0,0,0,0,0,0,0,0,0,0,0,0,0,0,0,0,0,0,0,0,0,0,0,0,0,0,0,0,0,0],"sum_hessian":[4.354E3,1.723E3,2.631E3,2.57E2,1.466E3,1.219E3,1.412E3,9.4E1,1.63E2,7.67E2,6.99E2,5.61E2,6.58E2,6.05E2,8.07E2,5.1E1,4.3E1,1.1E2,5.3E1,2.73E2,4.94E2,3.37E2,3.62E2,3.01E2,2.6E2,3.04E2,3.54E2,2.78E2,3.27E2,3.4E2,4.67E2,1.27E2,1.46E2,3.06E2,1.88E2,1.73E2,1.64E2,1.86E2,1.76E2,1.54E2,1.47E2,1.2E2,1.4E2,1.46E2,1.58E2,1.67E2,1.87E2,9.3E1,1.85E2,1.81E2,1.46E2,3.46E2,1.21E2],"tree_param":{"num_deleted":"0","num_feature":"17","num_nodes":"53","size_leaf_vector":"1"}},{"base_weights":[-4.6048705E-2,-5.2091484E0,3.5011065E0,-1.4499242E1,-3.6370308E0,1.1712683E0,5.5145316E0,-1.8507666E1,-1.1742036E1,-5.2176204E0,-2.1425245E0,1.6091453E-1,2.1209695E0,4.2099915E0,6.391745E0,-2.0400693E0,-1.625872E0,-1.2494267E0,-9.0971607E-1,-6.4398203E0,-4.4961333E0,-2.9828823E0,-1.4821491E0,-3.3917946E-1,6.4362854E-1,1.5829048E0,2.524607E0,3.7437546E0,4.657993E-1,5.703525E-1,6.9012804E0,-7.109753E-1,-5.8803284E-1,-4.901917E-1,-4.1226825E-1,-3.3463153E-1,-2.6598594E-1,-1.8408155E-1,-1.1850258E-1,-5.626305E-2,-1.0053711E-2,3.814834E-2,9.085285E-2,1.23613E-1,1.6707247E-1,2.2202268E-1,2.7935687E-1,3.3974263E-1,3.8822684E-1,6.5978044E-1,7.578664E-1],"categories":[],"categories_nodes":[],"categories_segments":[],"categories_sizes":[],"default_left":[0,0,0,0,0,0,0,0,0,0,0,0,0,0,0,0,0,0,0,0,0,0,0,0,0,0,0,0,0,0,0,0,0,0,0,0,0,0,0,0,0,0,0,0,0,0,0,0,0,0,0],"id":6,"left_children":[1,3,5,7,9,11,13,15,17,19,21,23,25,27,29,-1,-1,-1,-1,31,33,35,37,39,41,43,45,47,-1,-1,49,-1,-1,-1,-1,-1,-1,-1,-1,-1,-1,-1,-1,-1,-1,-1,-1,-1,-1,-1,-1],"loss_changes":[7.996023E4,2.5915168E4,1.2133732E4,2.6230586E3,3.5840898E3,1.1520592E3,1.5614609E3,1.0681641E2,1.9471875E2,6.2269727E2,4.306609E2,1.4095589E2,1.3043994E2,9.974121E1,2.509961E2,0E0,0E0,0E0,0E0,6.014258E1,5.0711914E1,3.148413E1,4.4815186E1,1.5247673E1,2.0277763E1,6.0963745E0,2.2614746E1,2.421875E-1,0E0,0E0,4.6820312E1,0E0,0E0,0E0,0E0,0E0,0E0,0E0,0E0,0E0,0E0,0E0,0E0,0E0,0E0,0E0,0E0,0E0,0E0,0E0,0E0],"parents":[2147483647,0,0,1,1,2,2,3,3,4,4,5,5,6,6,7,7,8,8,9,9,10,10,11,11,12,12,13,13,14,14,19,19,20,20,21,21,22,22,23,23,24,24,25,25,26,26,27,27,30,30],"right_children":[2,4,6,8,10,12,14,16,18,20,22,24,26,28,30,-1,-1,-1,-1,32,34,36,38,40,42,44,46,48,-1,-1,50,-1,-1,-1,-1,-1,-1,-1,-1,-1,-1,-1,-1,-1,-1,-1,-1,-1,-1,-1,-1],"split_conditions":[-1.5021728E-1,-1.5254233E0,5.865002E-1,-2.6943483E0,-6.7083097E-1,2.2305292E-1,9.597704E-1,6.4451957E-1,-1.8692248E0,-9.6551794E-1,-3.8596687E-1,3.641782E-2,3.703964E-1,7.829582E-1,1.1562284E0,-2.0400693E0,-1.625872E0,-1.2494267E0,-9.0971607E-1,-1.1717988E0,-8.181745E-1,-5.6277907E-1,-2.5826916E-1,-5.1988278E-2,1.3464682E-1,2.721674E-1,4.5880252E-1,6.650834E-1,4.657993E-1,5.703525E-1,1.293749E0,-7.109753E-1,-5.8803284E-1,-4.901917E-1,-4.1226825E-1,-3.3463153E-1,-2.6598594E-1,-1.8408155E-1,-1.1850258E-1,-5.626305E-2,-1.0053711E-2,3.814834E-2,9.085285E-2,1.23613E-1,1.6707247E-1,2.2202268E-1,2.7935687E-1,3.3974263E-1,3.8822684E-1,6.5978044E-1,7.578664E-1],"split_indices":[16,16,16,16,16,16,16,14,16,16,16,16,16,16,16,0,0,0,0,16,16,16,16,16,16,16,16,16,0,0,16,0,0,0,0,0,0,0,0,0,0,0,0,0,0,0,0,0,0,0,0],"split_type":[0,0,0,0,0,0,0,0,0,0,0,0,0,0,0,0,0,0,0,0,0,0,0,0,0,0,0,0,0,0,0,0,0,0,0,0,0,0,0,0,0,0,0,0,0,0,0,0,0,0,0],"sum_hessian":[4.364E3,1.777E3,2.587E3,2.56E2,1.521E3,1.2E3,1.387E3,1.02E2,1.54E2,7.38E2,7.83E2,5.82E2,6.18E2,5.6E2,8.27E2,5.1E1,5.1E1,1.17E2,3.7E1,2.71E2,4.67E2,3.43E2,4.4E2,2.86E2,2.96E2,2.67E2,3.51E2,2.79E2,2.81E2,3.57E2,4.7E2,1.18E2,1.53E2,2.18E2,2.49E2,1.57E2,1.86E2,1.97E2,2.43E2,1.47E2,1.39E2,1.5E2,1.46E2,5.7E1,2.1E2,1.69E2,1.82E2,8.7E1,1.92E2,3.32E2,1.38E2],"tree_param":{"num_deleted":"0","num_feature":"17","num_nodes":"51","size_leaf_vector":"1"}},{"base_weights":[5.4432442E-3,-4.099333E0,2.745104E0,-1.047891E1,-2.5897596E0,1.2004178E0,4.776665E0,-4.8204293E0,-1.3286437E1,-2.7192155E-1,-3.4663298E0,3.212917E0,4.2655933E-1,3.9571946E0,5.4380097E0,-9.693443E0,-2.6621652E0,-1.6348454E1,-1.0734612E1,-1.4496844E0,1.488916E0,-4.474461E0,-2.419317E0,2.2364728E0,4.4966903E0,-5.6409514E-1,1.6796523E0,5.052748E0,2.9844885E0,5.7407656E0,3.1913946E0,-1.1025026E0,-6.694347E-1,-1.8442194E-1,-8.819052E-1,-1.8271275E0,-1.4013509E0,-9.211419E-1,-1.2256582E0,1.0593338E-1,-2.7936965E-1,3.8825592E-1,1.00247614E-1,-6.2693614E-1,-4.0739933E-1,-8.628507E-2,-3.39058E-1,4.103448E-1,1.6328393E-1,3.714231E-1,5.022785E-1,-1.1543568E-1,2.7835045E-2,3.2986682E-2,2.0628439E-1,5.502099E-1,4.4745928E-1,3.4947142E-1,1.9703497E-1,3.2957175E-1,5.780234E-1,3.7121576E-1,6.2000435E-2],"categories":[],"categories_nodes":[],"categories_segments":[],"categories_sizes":[],"default_left":[0,0,0,0,0,0,0,0,0,0,0,0,0,0,0,0,0,0,0,0,0,0,0,0,0,0,0,0,0,0,0,0,0,0,0,0,0,0,0,0,0,0,0,0,0,0,0,0,0,0,0,0,0,0,0,0,0,0,0,0,0,0,0],"id":7,"left_children":[1,3,5,7,9,11,13,15,17,19,21,23,25,27,29,31,33,35,37,39,41,43,45,47,49,51,53,55,57,59,61,-1,-1,-1,-1,-1,-1,-1,-1,-1,-1,-1,-1,-1,-1,-1,-1,-1,-1,-1,-1,-1,-1,-1,-1,-1,-1,-1,-1,-1,-1,-1,-1],"loss_changes":[4.894127E4,1.6749086E4,8.1847695E3,5.2261055E3,2.8638232E3,2.3097957E3,5.892617E2,1.1521267E3,1.5591523E3,8.068119E2,1.0689785E3,5.0639893E2,1.3329504E3,5.2520557E2,4.040703E2,6.197534E1,3.815797E2,1.884336E2,1.7456348E2,7.886705E2,1.777485E2,3.4823438E2,7.589905E2,2.5926428E2,5.420581E1,2.9867938E2,2.4448474E2,3.695166E1,1.3334033E2,3.363867E1,9.946887E1,0E0,0E0,0E0,0E0,0E0,0E0,0E0,0E0,0E0,0E0,0E0,0E0,0E0,0E0,0E0,0E0,0E0,0E0,0E0,0E0,0E0,0E0,0E0,0E0,0E0,0E0,0E0,0E0,0E0,0E0,0E0,0E0],"parents":[2147483647,0,0,1,1,2,2,3,3,4,4,5,5,6,6,7,7,8,8,9,9,10,10,11,11,12,12,13,13,14,14,15,15,16,16,17,17,18,18,19,19,20,20,21,21,22,22,23,23,24,24,25,25,26,26,27,27,28,28,29,29,30,30],"right_children":[2,4,6,8,10,12,14,16,18,20,22,24,26,28,30,32,34,36,38,40,42,44,46,48,50,52,54,56,58,60,62,-1,-1,-1,-1,-1,-1,-1,-1,-1,-1,-1,-1,-1,-1,-1,-1,-1,-1,-1,-1,-1,-1,-1,-1,-1,-1,-1,-1,-1,-1,-1,-1],"split_conditions":[-4.578176E-2,-1.768679E0,7.135112E-1,-1.4216033E0,-7.080035E-1,-1.4755388E-1,9.72619E-1,4.6323526E-1,-2.5405393E0,-6.519513E-1,-4.646406E-1,3.4297025E-1,4.3618965E-1,3.582888E-1,1.2457333E0,1.8839735E0,3.0310564E0,-3.8677213E-1,-1.7049176E-1,-1.884168E0,-1.884168E0,-1.0966907E0,1.4896314E-1,-9.619295E-1,5.1633257E-1,1.6754597E-1,-6.992904E-1,5.9911285E-2,6.914318E-1,-1.6134737E0,2.1727116E0,-1.1025026E0,-6.694347E-1,-1.8442194E-1,-8.819052E-1,-1.8271275E0,-1.4013509E0,-9.211419E-1,-1.2256582E0,1.0593338E-1,-2.7936965E-1,3.8825592E-1,1.00247614E-1,-6.2693614E-1,-4.0739933E-1,-8.628507E-2,-3.39058E-1,4.103448E-1,1.6328393E-1,3.714231E-1,5.022785E-1,-1.1543568E-1,2.7835045E-2,3.2986682E-2,2.0628439E-1,5.502099E-1,4.4745928E-1,3.4947142E-1,1.9703497E-1,3.2957175E-1,5.780234E-1,3.7121576E-1,6.2000435E-2],"split_indices":[5,5,5,6,6,6,5,11,5,5,5,5,5,6,6,12,9,13,13,6,6,5,6,6,5,1,2,6,6,15,6,0,0,0,0,0,0,0,0,0,0,0,0,0,0,0,0,0,0,0,0,0,0,0,0,0,0,0,0,0,0,0,0],"split_type":[0,0,0,0,0,0,0,0,0,0,0,0,0,0,0,0,0,0,0,0,0,0,0,0,0,0,0,0,0,0,0,0,0,0,0,0,0,0,0,0,0,0,0,0,0,0,0,0,0,0,0,0,0,0,0,0,0,0,0,0,0,0,0],"sum_hessian":[4.35E3,1.741E3,2.609E3,3.32E2,1.409E3,1.483E3,1.126E3,1.11E2,2.21E2,3.87E2,1.022E3,4.11E2,1.072E3,5.06E2,6.2E2,3.3E1,7.8E1,9.8E1,1.23E2,2.32E2,1.55E2,5.19E2,5.03E2,2.35E2,1.76E2,5.99E2,4.73E2,2.36E2,2.7E2,5.45E2,7.5E1,2.1E1,1.2E1,7E1,8E0,5E1,4.8E1,6.5E1,5.8E1,8.1E1,1.51E2,2.5E1,1.3E2,9.2E1,4.27E2,1.94E2,3.09E2,5.6E1,1.79E2,7.4E1,1.02E2,3.52E2,2.47E2,1.05E2,3.68E2,1.28E2,1.08E2,1.78E2,9.2E1,1E1,5.35E2,6.2E1,1.3E1],"tree_param":{"num_deleted":"0","num_feature":"17","num_nodes":"63","size_leaf_vector":"1"}},{"base_weights":[-1.733201E-2,-4.3329425E0,2.9158382E0,-1.2673337E1,-3.0979211E0,1.0134969E0,4.527276E0,-1.5712628E0,-1.04407E1,-4.683972E0,-1.925783E0,1.7679824E-1,1.7920687E0,3.702222E0,5.4326444E0,-1.1781106E0,-9.458987E-1,-5.9382772E0,-4.009574E0,-2.6501448E0,-1.2769836E0,-2.2018357E-1,6.365808E-1,1.4390436E0,2.2294152E0,3.2035205E0,4.1791983E0,5.163219E0,6.147353E-1,-7.055384E-1,-5.459313E-1,-4.496791E-1,-3.7168375E-1,-3.0434418E-1,-2.300616E-1,-1.6660137E-1,-1.0257474E-1,-3.8332175E-2,5.498961E-3,4.4717725E-2,8.6113125E-2,1.269616E-1,1.6480488E-1,2.0513499E-1,2.4573384E-1,2.9235843E-1,3.4048006E-1,3.8734564E-1,4.382092E-1,4.7586688E-1,5.328621E-1],"categories":[],"categories_nodes":[],"categories_segments":[],"categories_sizes":[],"default_left":[0,0,0,0,0,0,0,0,0,0,0,0,0,0,0,0,0,0,0,0,0,0,0,0,0,0,0,0,0,0,0,0,0,0,0,0,0,0,0,0,0,0,0,0,0,0,0,0,0,0,0],"id":8,"left_children":[1,3,5,7,9,11,13,-1,15,17,19,21,23,25,27,-1,-1,29,31,33,35,37,39,41,43,45,47,49,-1,-1,-1,-1,-1,-1,-1,-1,-1,-1,-1,-1,-1,-1,-1,-1,-1,-1,-1,-1,-1,-1,-1],"loss_changes":[5.562108E4,1.8275145E4,8.0147715E3,1.3898594E3,2.872541E3,7.8205054E2,1.0376074E3,0E0,6.620801E1,5.3279297E2,4.1629517E2,1.0600486E2,9.282495E1,1.6358594E2,9.7853516E1,0E0,0E0,8.347461E1,4.4757812E1,5.0872314E1,4.4521362E1,1.4027147E1,1.1055672E1,1.01953125E1,6.1606445E0,1.078125E1,6.4125977E0,7.7646484E0,0E0,0E0,0E0,0E0,0E0,0E0,0E0,0E0,0E0,0E0,0E0,0E0,0E0,0E0,0E0,0E0,0E0,0E0,0E0,0E0,0E0,0E0,0E0],"parents":[2147483647,0,0,1,1,2,2,3,3,4,4,5,5,6,6,8,8,9,9,10,10,11,11,12,12,13,13,14,14,17,17,18,18,19,19,20,20,21,21,22,22,23,23,24,24,25,25,26,26,27,27],"right_children":[2,4,6,8,10,12,14,-1,16,18,20,22,24,26,28,-1,-1,30,32,34,36,38,40,42,44,46,48,50,-1,-1,-1,-1,-1,-1,-1,-1,-1,-1,-1,-1,-1,-1,-1,-1,-1,-1,-1,-1,-1,-1,-1],"split_conditions":[-1.5021728E-1,-1.8692248E0,5.865002E-1,-2.920275E0,-7.3959124E-1,2.525216E-1,1.0678223E0,-1.5712628E0,-2.438953E0,-1.0696406E0,-4.1543558E-1,6.588652E-2,4.0968803E-1,8.222498E-1,1.2741032E0,-1.1781106E0,-9.458987E-1,-1.3289653E0,-8.8693476E-1,-6.020707E-1,-2.7791497E-1,-1.2696679E-2,1.6411552E-1,3.4092772E-1,5.07917E-1,7.04375E-1,9.401246E-1,1.1365826E0,6.147353E-1,-7.055384E-1,-5.459313E-1,-4.496791E-1,-3.7168375E-1,-3.0434418E-1,-2.300616E-1,-1.6660137E-1,-1.0257474E-1,-3.8332175E-2,5.498961E-3,4.4717725E-2,8.6113125E-2,1.269616E-1,1.6480488E-1,2.0513499E-1,2.4573384E-1,2.9235843E-1,3.4048006E-1,3.8734564E-1,4.382092E-1,4.7586688E-1,5.328621E-1],"split_indices":[16,16,16,16,16,16,16,0,16,16,16,16,16,16,16,0,0,16,16,16,16,16,16,16,16,16,16,16,0,0,0,0,0,0,0,0,0,0,0,0,0,0,0,0,0,0,0,0,0,0,0],"split_type":[0,0,0,0,0,0,0,0,0,0,0,0,0,0,0,0,0,0,0,0,0,0,0,0,0,0,0,0,0,0,0,0,0,0,0,0,0,0,0,0,0,0,0,0,0,0,0,0,0,0,0],"sum_hessian":[4.392E3,1.777E3,2.615E3,2.28E2,1.549E3,1.2E3,1.415E3,9.4E1,1.34E2,6.57E2,8.92E2,5.79E2,6.21E2,7.43E2,6.72E2,5.2E1,8.2E1,2.27E2,4.3E2,4.2E2,4.72E2,3.11E2,2.68E2,3.46E2,2.75E2,3.67E2,3.76E2,4.94E2,1.78E2,6.4E1,1.63E2,1.56E2,2.74E2,1.94E2,2.26E2,1.83E2,2.89E2,1.95E2,1.16E2,1.47E2,1.21E2,1.95E2,1.51E2,1.6E2,1.15E2,1.6E2,2.07E2,1.58E2,2.18E2,1.52E2,3.42E2],"tree_param":{"num_deleted":"0","num_feature":"17","num_nodes":"51","size_leaf_vector":"1"}},{"base_weights":[-6.4634755E-2,-4.1087847E0,2.4118035E0,-1.1428802E1,-2.9500701E0,6.6889876E-1,4.0120244E0,-1.3948584E0,-9.5040865E0,-4.247945E0,-1.9472404E0,-1.7928225E-1,1.4520073E0,3.1685784E0,4.809429E0,-1.0825275E0,-8.530863E-1,-5.626795E0,-3.7432408E0,-2.536248E0,-1.3990564E0,-5.094299E-1,2.380232E-1,1.0261158E0,1.7915493E0,2.811304E0,3.6547884E-1,4.5140944E0,5.425977E0,-6.477208E-1,-5.1291317E-1,-4.2798337E-1,-3.430581E-1,-2.8033403E-1,-2.1866779E-1,-1.6896307E-1,-1.1792233E-1,-6.410344E-2,-2.260365E-2,-3.8608882E-4,3.603305E-2,7.973831E-2,1.17539145E-1,1.6012701E-1,2.0472257E-1,2.5568804E-1,3.0049822E-1,4.1571102E-1,4.7350526E-1,5.1928365E-1,6.1195797E-1],"categories":[],"categories_nodes":[],"categories_segments":[],"categories_sizes":[],"default_left":[0,0,0,0,0,0,0,0,0,0,0,0,0,0,0,0,0,0,0,0,0,0,0,0,0,0,0,0,0,0,0,0,0,0,0,0,0,0,0,0,0,0,0,0,0,0,0,0,0,0,0],"id":9,"left_children":[1,3,5,7,9,11,13,-1,15,17,19,21,23,25,27,-1,-1,29,31,33,35,37,39,41,43,45,-1,47,49,-1,-1,-1,-1,-1,-1,-1,-1,-1,-1,-1,-1,-1,-1,-1,-1,-1,-1,-1,-1,-1,-1],"loss_changes":[4.2904527E4,1.3766189E4,7.4077764E3,9.4410156E2,1.8217041E3,8.4580963E2,9.162656E2,0E0,7.3521484E1,4.0483594E2,2.5314478E2,8.4437965E1,9.389221E1,1.0715283E2,1.04791016E2,0E0,0E0,3.5338867E1,6.0981934E1,2.9536377E1,2.4453003E1,1.2610275E1,8.018705E0,9.169434E0,1.4576416E1,1.1731689E1,0E0,1.865039E1,4.6064453E0,0E0,0E0,0E0,0E0,0E0,0E0,0E0,0E0,0E0,0E0,0E0,0E0,0E0,0E0,0E0,0E0,0E0,0E0,0E0,0E0,0E0,0E0],"parents":[2147483647,0,0,1,1,2,2,3,3,4,4,5,5,6,6,8,8,9,9,10,10,11,11,12,12,13,13,14,14,17,17,18,18,19,19,20,20,21,21,22,22,23,23,24,24,25,25,27,27,28,28],"right_children":[2,4,6,8,10,12,14,-1,16,18,20,22,24,26,28,-1,-1,30,32,34,36,38,40,42,44,46,-1,48,50,-1,-1,-1,-1,-1,-1,-1,-1,-1,-1,-1,-1,-1,-1,-1,-1,-1,-1,-1,-1,-1,-1],"split_conditions":[-1.9933178E-1,-1.8692248E0,5.668544E-1,-2.920275E0,-7.5923705E-1,1.6411552E-1,1.0088849E0,-1.3948584E0,-2.438953E0,-1.1423302E0,-4.6455008E-1,-1.2696679E-2,3.5075063E-1,8.222498E-1,1.2446345E0,-1.0825275E0,-8.530863E-1,-1.3879026E0,-9.164035E-1,-6.118936E-1,-3.3685237E-1,-8.1456974E-2,4.624072E-2,2.623445E-1,4.5880252E-1,6.945521E-1,3.6547884E-1,1.1267596E0,1.3723322E0,-6.477208E-1,-5.1291317E-1,-4.2798337E-1,-3.430581E-1,-2.8033403E-1,-2.1866779E-1,-1.6896307E-1,-1.1792233E-1,-6.410344E-2,-2.260365E-2,-3.8608882E-4,3.603305E-2,7.973831E-2,1.17539145E-1,1.6012701E-1,2.0472257E-1,2.5568804E-1,3.0049822E-1,4.1571102E-1,4.7350526E-1,5.1928365E-1,6.1195797E-1],"split_indices":[16,16,16,16,16,16,16,0,16,16,16,16,16,16,16,0,0,16,16,16,16,16,16,16,16,16,0,16,16,0,0,0,0,0,0,0,0,0,0,0,0,0,0,0,0,0,0,0,0,0,0],"split_type":[0,0,0,0,0,0,0,0,0,0,0,0,0,0,0,0,0,0,0,0,0,0,0,0,0,0,0,0,0,0,0,0,0,0,0,0,0,0,0,0,0,0,0,0,0,0,0,0,0,0,0],"sum_hessian":[4.282E3,1.626E3,2.656E3,2.21E2,1.405E3,1.272E3,1.384E3,9.3E1,1.28E2,6.11E2,7.94E2,6.11E2,6.61E2,6.75E2,7.09E2,5E1,7.8E1,1.61E2,4.5E2,3.81E2,4.13E2,3.41E2,2.7E2,2.95E2,3.66E2,3.93E2,2.82E2,4.85E2,2.24E2,5.5E1,1.06E2,1.61E2,2.89E2,2.12E2,1.69E2,1.75E2,2.38E2,2.32E2,1.09E2,9.1E1,1.79E2,1.19E2,1.76E2,2.14E2,1.52E2,1.76E2,2.17E2,1.93E2,2.92E2,1.74E2,5E1],"tree_param":{"num_deleted":"0","num_feature":"17","num_nodes":"51","size_leaf_vector":"1"}},{"base_weights":[-8.408248E-3,-3.4261885E0,2.3773658E0,-9.753621E0,-2.4097693E0,8.4913045E-1,3.651017E0,-1.23379755E1,-7.81941E0,-3.4785202E0,-1.4051236E0,1.7973903E-1,1.4813439E0,2.800257E0,4.252292E0,-1.3962822E0,-1.0913708E0,-8.7354195E-1,-6.6671723E-1,-4.3138423E0,-2.9844692E0,-1.9040476E0,-9.0392846E-1,-1.5412617E-1,5.2982944E-1,1.1840914E0,1.8157704E0,2.4896097E0,3.08096E-1,3.8400137E0,4.6492085E0,-4.6867442E-1,-3.9315698E-1,-3.3544335E-1,-2.761175E-1,-2.0952372E-1,-1.5808378E-1,-1.12602174E-1,-7.18107E-2,-3.56158E-2,-1.8172739E-3,3.0523568E-2,6.41688E-2,9.843615E-2,1.2974422E-1,1.675566E-1,1.9887464E-1,2.3392116E-1,2.6393825E-1,3.638995E-1,4.0604797E-1,4.459891E-1,5.343623E-1],"categories":[],"categories_nodes":[],"categories_segments":[],"categories_sizes":[],"default_left":[0,0,0,0,0,0,0,0,0,0,0,0,0,0,0,0,0,0,0,0,0,0,0,0,0,0,0,0,0,0,0,0,0,0,0,0,0,0,0,0,0,0,0,0,0,0,0,0,0,0,0,0,0],"id":10,"left_children":[1,3,5,7,9,11,13,15,17,19,21,23,25,27,29,-1,-1,-1,-1,31,33,35,37,39,41,43,45,47,-1,49,51,-1,-1,-1,-1,-1,-1,-1,-1,-1,-1,-1,-1,-1,-1,-1,-1,-1,-1,-1,-1,-1,-1],"loss_changes":[3.5445652E4,1.1469273E4,4.979783E3,1.1381992E3,1.649709E3,4.927597E2,7.022031E2,8.8291016E1,9.374609E1,2.9499316E2,1.9732532E2,6.6354324E1,5.7395996E1,4.2992676E1,1.15677734E2,0E0,0E0,0E0,0E0,2.0774902E1,2.972998E1,2.128186E1,1.565802E1,7.9864016E0,6.7631226E0,5.967499E0,3.458252E0,1.5563965E-1,0E0,3.2167969E0,3.0200195E1,0E0,0E0,0E0,0E0,0E0,0E0,0E0,0E0,0E0,0E0,0E0,0E0,0E0,0E0,0E0,0E0,0E0,0E0,0E0,0E0,0E0,0E0],"parents":[2147483647,0,0,1,1,2,2,3,3,4,4,5,5,6,6,7,7,8,8,9,9,10,10,11,11,12,12,13,13,14,14,19,19,20,20,21,21,22,22,23,23,24,24,25,25,26,26,27,27,29,29,30,30],"right_children":[2,4,6,8,10,12,14,16,18,20,22,24,26,28,30,-1,-1,-1,-1,32,34,36,38,40,42,44,46,48,-1,50,52,-1,-1,-1,-1,-1,-1,-1,-1,-1,-1,-1,-1,-1,-1,-1,-1,-1,-1,-1,-1,-1,-1],"split_conditions":[-1.3057147E-1,-1.5254233E0,5.865002E-1,-2.6943483E0,-6.7083097E-1,2.623445E-1,9.597704E-1,1.0754448E0,-2.1540887E0,-9.6551794E-1,-3.4667528E-1,6.588652E-2,4.0968803E-1,7.633124E-1,1.1758742E0,-1.3962822E0,-1.0913708E0,-8.7354195E-1,-6.6671723E-1,-1.1423302E0,-8.3782023E-1,-4.6455008E-1,-2.2880048E-1,-5.1988278E-2,1.3464682E-1,3.212819E-1,5.07917E-1,6.945521E-1,3.08096E-1,1.097291E0,1.3428634E0,-4.6867442E-1,-3.9315698E-1,-3.3544335E-1,-2.761175E-1,-2.0952372E-1,-1.5808378E-1,-1.12602174E-1,-7.18107E-2,-3.56158E-2,-1.8172739E-3,3.0523568E-2,6.41688E-2,9.843615E-2,1.2974422E-1,1.675566E-1,1.9887464E-1,2.3392116E-1,2.6393825E-1,3.638995E-1,4.0604797E-1,4.459891E-1,5.343623E-1],"split_indices":[16,16,16,16,16,16,16,12,16,16,16,16,16,16,16,0,0,0,0,16,16,16,16,16,16,16,16,16,0,16,16,0,0,0,0,0,0,0,0,0,0,0,0,0,0,0,0,0,0,0,0,0,0],"split_type":[0,0,0,0,0,0,0,0,0,0,0,0,0,0,0,0,0,0,0,0,0,0,0,0,0,0,0,0,0,0,0,0,0,0,0,0,0,0,0,0,0,0,0,0,0,0,0,0,0,0,0,0,0],"sum_hessian":[4.345E3,1.786E3,2.559E3,2.46E2,1.54E3,1.164E3,1.395E3,1.03E2,1.43E2,7.45E2,7.95E2,5.66E2,5.98E2,5.8E2,8.15E2,4.4E1,5.9E1,7.6E1,6.7E1,2.74E2,4.71E2,3.97E2,3.98E2,2.9E2,2.76E2,3.19E2,2.79E2,2.8E2,3E2,4.05E2,4.1E2,1.33E2,1.41E2,1.72E2,2.99E2,2.46E2,1.51E2,1.79E2,2.19E2,1.16E2,1.74E2,9.3E1,1.83E2,1.19E2,2E2,1.6E2,1.19E2,1.48E2,1.32E2,2.21E2,1.84E2,3.28E2,8.2E1],"tree_param":{"num_deleted":"0","num_feature":"17","num_nodes":"53","size_leaf_vector":"1"}},{"base_weights":[5.210267E-2,4.45971E-1,-7.9631796E0,-2.5088635E-1,1.6548389E0,-9.272134E0,-4.7734776E0,8.138475E-2,-5.972879E0,2.0571296E0,2.8415322E-1,-1.051082E1,-2.2447185E-1,-5.4711515E-1,-3.440863E-1,-5.9753984E-1,2.170844E0,-6.4987693E0,-1.8721712E0,2.5478702E0,1.1092612E0,-3.8757253E-2,3.3774402E0,-1.1805266E0,-8.51638E-1,-7.855056E-2,3.3263627E-1,8.301307E-2,2.584674E-1,-4.7831497E-1,-7.360909E-1,-2.9258916E-1,2.5473234E-1,4.8686318E-2,2.744024E-1,-1.19966164E-1,2.0707993E-1,2.3978516E-2,-1.4628635E-1,3.739451E-1,6.0229033E-2],"categories":[],"categories_nodes":[],"categories_segments":[],"categories_sizes":[],"default_left":[0,0,0,0,0,0,0,0,0,0,0,0,0,0,0,0,0,0,0,0,0,0,0,0,0,0,0,0,0,0,0,0,0,0,0,0,0,0,0,0,0],"id":11,"left_children":[1,3,5,7,9,11,13,15,17,19,21,23,-1,-1,-1,25,27,29,31,33,35,37,39,-1,-1,-1,-1,-1,-1,-1,-1,-1,-1,-1,-1,-1,-1,-1,-1,-1,-1],"loss_changes":[1.388473E4,3.531792E3,8.158252E2,5.057819E3,8.447334E2,1.2385957E3,3.881787E1,3.569039E3,3.0268506E2,5.4838525E2,3.4873123E2,2.1701074E2,0E0,0E0,0E0,1.4032385E3,3.401831E2,1.5559619E2,9.127761E1,3.1399805E2,9.038518E2,1.2609642E2,3.0900696E1,0E0,0E0,0E0,0E0,0E0,0E0,0E0,0E0,0E0,0E0,0E0,0E0,0E0,0E0,0E0,0E0,0E0,0E0],"parents":[2147483647,0,0,1,1,2,2,3,3,4,4,5,5,6,6,7,7,8,8,9,9,10,10,11,11,15,15,16,16,17,17,18,18,19,19,20,20,21,21,22,22],"right_children":[2,4,6,8,10,12,14,16,18,20,22,24,-1,-1,-1,26,28,30,32,34,36,38,40,-1,-1,-1,-1,-1,-1,-1,-1,-1,-1,-1,-1,-1,-1,-1,-1,-1,-1],"split_conditions":[1.9832313E0,7.5143434E-2,1.1425589E0,3.5726817E0,1.6931996E0,4.6323526E-1,-6.604374E-2,2.2115736E-1,-8.493229E-1,4.1469765E-1,-2.1273734E-1,8.3711016E-1,-2.2447185E-1,-5.4711515E-1,-3.440863E-1,1.4745743E0,-8.2828104E-1,-9.695552E-1,-8.2828104E-1,-6.616705E-1,9.5184493E-1,4.7911918E-1,3.3559123E-1,-1.1805266E0,-8.51638E-1,-7.855056E-2,3.3263627E-1,8.301307E-2,2.584674E-1,-4.7831497E-1,-7.360909E-1,-2.9258916E-1,2.5473234E-1,4.8686318E-2,2.744024E-1,-1.19966164E-1,2.0707993E-1,2.3978516E-2,-1.4628635E-1,3.739451E-1,6.0229033E-2],"split_indices":[7,13,14,9,13,11,13,14,14,14,10,14,0,0,0,10,7,14,7,15,14,14,0,0,0,0,0,0,0,0,0,0,0,0,0,0,0,0,0,0,0],"split_type":[0,0,0,0,0,0,0,0,0,0,0,0,0,0,0,0,0,0,0,0,0,0,0,0,0,0,0,0,0,0,0,0,0,0,0,0,0,0,0,0,0],"sum_hessian":[4.396E3,4.191E3,2.05E2,2.659E3,1.532E3,1.44E2,6.1E1,2.514E3,1.45E2,1.184E3,3.48E2,1.22E2,2.2E1,3.8E1,2.3E1,1.898E3,6.16E2,1.28E2,1.7E1,7.79E2,4.05E2,3.16E2,3.2E1,7.1E1,5.1E1,1.812E3,8.6E1,1.46E2,4.7E2,4.5E1,8.3E1,1.4E1,3E0,6.8E1,7.11E2,1.19E2,2.86E2,2.65E2,5.1E1,2.8E1,4E0],"tree_param":{"num_deleted":"0","num_feature":"17","num_nodes":"41","size_leaf_vector":"1"}},{"base_weights":[-2.571534E-2,1.421904E-1,-3.862769E0,-1.6947899E0,5.61034E-1,-5.800039E0,1.5929757E0,5.3786144E-2,-5.782503E0,4.1068214E-1,2.8608942E0,-6.591263E0,-4.2121444E0,2.685498E0,-1.3301512E0,-8.181542E-1,2.372789E0,-8.759979E0,-9.21208E-1,3.5144022E0,3.006661E-1,-4.288208E-2,3.2358055E0,-7.348077E-1,-5.791732E-1,-2.4477367E-1,-4.360384E-1,3.0738643E-1,1.8556464E-1,2.403618E-1,-2.5669625E-1,4.971719E-3,-2.1284615E-1,3.152549E-1,-8.513362E-2,-1.0600804E0,-6.996644E-1,3.0234647E-1,-2.6597735E-1,3.7952313E-1,2.4077737E-1,-3.0514022E-2,9.8515816E-2,1.6587846E-1,-4.459988E-2,1.8352382E-1,3.472392E-1],"categories":[],"categories_nodes":[],"categories_segments":[],"categories_sizes":[],"default_left":[0,0,0,0,0,0,0,0,0,0,0,0,0,0,0,0,0,0,0,0,0,0,0,0,0,0,0,0,0,0,0,0,0,0,0,0,0,0,0,0,0,0,0,0,0,0,0],"id":12,"left_children":[1,3,5,7,9,11,13,15,17,19,21,23,25,27,29,31,33,35,37,39,41,43,45,-1,-1,-1,-1,-1,-1,-1,-1,-1,-1,-1,-1,-1,-1,-1,-1,-1,-1,-1,-1,-1,-1,-1,-1],"loss_changes":[2.8275767E3,3.2363096E3,1.9539812E3,5.5826475E3,1.18315E3,1.4310449E2,1.6005759E2,1.1100149E3,3.378938E3,1.0970757E3,2.287572E2,1.129541E1,1.8815308E0,5.8983154E0,7.082155E1,4.5383994E2,3.7979053E2,3.9649805E2,6.2526825E2,2.5046875E1,1.2886791E3,1.7889072E1,5.52594E1,0E0,0E0,0E0,0E0,0E0,0E0,0E0,0E0,0E0,0E0,0E0,0E0,0E0,0E0,0E0,0E0,0E0,0E0,0E0,0E0,0E0,0E0,0E0,0E0],"parents":[2147483647,0,0,1,1,2,2,3,3,4,4,5,5,6,6,7,7,8,8,9,9,10,10,11,11,12,12,13,13,14,14,15,15,16,16,17,17,18,18,19,19,20,20,21,21,22,22],"right_children":[2,4,6,8,10,12,14,16,18,20,22,24,26,28,30,32,34,36,38,40,42,44,46,-1,-1,-1,-1,-1,-1,-1,-1,-1,-1,-1,-1,-1,-1,-1,-1,-1,-1,-1,-1,-1,-1,-1,-1],"split_conditions":[3.8767722E0,4.6323526E-1,-7.0227396E-1,2.8207242E-1,2.074841E0,-9.6322644E-1,-1.3219937E0,1.0658598E0,1.372335E0,-1.249075E0,6.495249E-2,-1.2394737E0,-1.7993072E-1,-4.1348386E-1,-1.1747684E-1,-4.341792E-1,9.420113E-2,8.5422957E-1,6.478405E-2,1.7866273E0,-1.4947127E-1,-5.408039E-1,2.4118145E0,-7.348077E-1,-5.791732E-1,-2.4477367E-1,-4.360384E-1,3.0738643E-1,1.8556464E-1,2.403618E-1,-2.5669625E-1,4.971719E-3,-2.1284615E-1,3.152549E-1,-8.513362E-2,-1.0600804E0,-6.996644E-1,3.0234647E-1,-2.6597735E-1,3.7952313E-1,2.4077737E-1,-3.0514022E-2,9.8515816E-2,1.6587846E-1,-4.459988E-2,1.8352382E-1,3.472392E-1],"split_indices":[9,11,14,10,10,12,12,14,14,12,12,12,1,14,6,12,15,0,12,9,14,12,10,0,0,0,0,0,0,0,0,0,0,0,0,0,0,0,0,0,0,0,0,0,0,0,0],"split_type":[0,0,0,0,0,0,0,0,0,0,0,0,0,0,0,0,0,0,0,0,0,0,0,0,0,0,0,0,0,0,0,0,0,0,0,0,0,0,0,0,0,0,0,0,0,0,0],"sum_hessian":[4.387E3,4.204E3,1.83E2,7.8E2,3.424E3,1.35E2,4.8E1,5.47E2,2.33E2,3.215E3,2.09E2,8.8E1,4.7E1,3.5E1,1.3E1,3.98E2,1.49E2,1.44E2,8.9E1,1.09E2,3.106E3,2.4E1,1.85E2,4.1E1,4.7E1,5E0,4.2E1,2.2E1,1.3E1,3E0,1E1,2.4E2,1.58E2,1.2E2,2.9E1,6.8E1,7.6E1,2.7E1,6.2E1,8.5E1,2.4E1,1.648E3,1.458E3,4E0,2E1,2.8E1,1.57E2],"tree_param":{"num_deleted":"0","num_feature":"17","num_nodes":"47","size_leaf_vector":"1"}},{"base_weights":[1.2674221E-2,-2.699362E0,2.0045907E0,-7.599645E0,-2.0244007E0,7.232839E-1,2.945604E0,-8.899669E0,-5.9116197E-1,-3.0487325E0,-1.1276951E0,2.4672109E-1,1.2883898E0,2.4590871E0,3.613721E0,-1.0661473E0,-8.143613E-1,-3.8024514E0,-2.6083398E0,-1.5556399E0,-6.8307835E-1,-1.03960805E-1,4.781274E-1,1.0573074E0,1.5549852E0,2.1770327E0,2.787502E0,3.5191032E-1,4.5381308E-1,-4.0745112E-1,-3.4904298E-1,-2.8841802E-1,-2.4134742E-1,-1.7656685E-1,-1.3461651E-1,-8.944814E-2,-5.383737E-2,2.6955318E-3,-2.0768484E-2,5.3863585E-2,4.6451916E-3,1.170573E-1,7.449197E-2,1.4496383E-1,1.6779688E-1,2.4234124E-1,2.0582731E-1,2.5686622E-1,2.8889942E-1],"categories":[],"categories_nodes":[],"categories_segments":[],"categories_sizes":[],"default_left":[0,0,0,0,0,0,0,0,0,0,0,0,0,0,0,0,0,0,0,0,0,0,0,0,0,0,0,0,0,0,0,0,0,0,0,0,0,0,0,0,0,0,0,0,0,0,0,0,0],"id":13,"left_children":[1,3,5,7,9,11,13,15,-1,17,19,21,23,25,27,-1,-1,29,31,33,35,37,39,41,43,45,47,-1,-1,-1,-1,-1,-1,-1,-1,-1,-1,-1,-1,-1,-1,-1,-1,-1,-1,-1,-1,-1,-1],"loss_changes":[2.3537176E4,6.086957E3,3.0266553E3,4.3675586E2,1.4873262E3,2.864956E2,4.6178613E2,7.834766E1,0E0,2.4135498E2,1.6390271E2,4.703556E1,2.8357788E1,7.1833984E1,3.7208984E1,0E0,0E0,9.291992E0,1.8893555E1,1.7025269E1,1.2580795E1,3.1423814E0,9.090866E0,8.469086E0,4.6966553E-1,8.383789E0,1.130127E0,0E0,0E0,0E0,0E0,0E0,0E0,0E0,0E0,0E0,0E0,0E0,0E0,0E0,0E0,0E0,0E0,0E0,0E0,0E0,0E0,0E0,0E0],"parents":[2147483647,0,0,1,1,2,2,3,3,4,4,5,5,6,6,7,7,9,9,10,10,11,11,12,12,13,13,14,14,17,17,18,18,19,19,20,20,21,21,22,22,23,23,24,24,25,25,26,26],"right_children":[2,4,6,8,10,12,14,16,-1,18,20,22,24,26,28,-1,-1,30,32,34,36,38,40,42,44,46,48,-1,-1,-1,-1,-1,-1,-1,-1,-1,-1,-1,-1,-1,-1,-1,-1,-1,-1,-1,-1,-1,-1],"split_conditions":[-7.163408E-2,-1.8692248E0,5.766773E-1,-2.527359E0,-6.7083097E-1,3.016361E-1,1.097291E0,-3.6206477E0,-5.9116197E-1,-9.9498665E-1,-3.073837E-1,8.553232E-2,4.293338E-1,8.713643E-1,1.3723322E0,-1.0661473E0,-8.143613E-1,-1.2012676E0,-8.3782023E-1,-4.92175E-1,-2.0915468E-1,-8.2828104E-1,1.0443658E0,1.8439321E-1,5.07917E-1,-2.4282867E-1,9.499475E-1,3.5191032E-1,4.5381308E-1,-4.0745112E-1,-3.4904298E-1,-2.8841802E-1,-2.4134742E-1,-1.7656685E-1,-1.3461651E-1,-8.944814E-2,-5.383737E-2,2.6955318E-3,-2.0768484E-2,5.3863585E-2,4.6451916E-3,1.170573E-1,7.449197E-2,1.4496383E-1,1.6779688E-1,2.4234124E-1,2.0582731E-1,2.5686622E-1,2.8889942E-1],"split_indices":[16,16,16,16,16,16,16,16,0,16,16,16,16,16,16,0,0,16,16,16,16,7,10,14,16,14,16,0,0,0,0,0,0,0,0,0,0,0,0,0,0,0,0,0,0,0,0,0,0],"split_type":[0,0,0,0,0,0,0,0,0,0,0,0,0,0,0,0,0,0,0,0,0,0,0,0,0,0,0,0,0,0,0,0,0,0,0,0,0,0,0,0,0,0,0,0,0,0,0,0,0],"sum_hessian":[4.355E3,1.844E3,2.511E3,2.22E2,1.622E3,1.064E3,1.447E3,1.23E2,9.9E1,7.56E2,8.66E2,5.78E2,4.86E2,8.4E2,6.07E2,3.3E1,9E1,2.76E2,4.8E2,4.4E2,4.26E2,2.3E2,3.48E2,2.63E2,2.23E2,4.56E2,3.84E2,5.55E2,5.2E1,1.41E2,1.35E2,1.93E2,2.87E2,2.16E2,2.24E2,1.71E2,2.55E2,1.02E2,1.28E2,3.05E2,4.3E1,1.91E2,7.2E1,1.27E2,9.6E1,1.42E2,3.14E2,1.3E2,2.54E2],"tree_param":{"num_deleted":"0","num_feature":"17","num_nodes":"49","size_leaf_vector":"1"}},{"base_weights":[-9.71949E-3,-2.4491053E0,1.7656045E0,-6.910304E0,-1.8396301E0,6.2554246E-1,2.6645377E0,-8.134212E0,-5.3075284E-1,-2.7685978E0,-1.0933967E0,1.71987E-1,1.1282225E0,2.2049484E0,3.2397199E0,-9.503421E-1,-7.2339857E-1,-3.329211E0,-2.3394196E0,-1.509634E0,-7.015048E-1,-7.365709E-2,4.8715106E-1,8.926171E-1,1.3712687E0,1.9531525E0,2.4978385E0,3.1680846E0,4.2153493E-1,-3.654215E-1,-3.0175152E-1,-2.5734034E-1,-2.193851E-1,-1.8128227E-1,-1.3771933E-1,-9.242031E-2,-5.4323565E-2,-1.3930826E-2,3.0071473E-2,4.0572803E-2,1.2012221E-1,9.9921905E-2,6.3654974E-2,1.3894111E-1,7.787713E-2,1.6848168E-1,2.0354874E-1,2.4497883E-1,2.9667696E-1,2.974536E-1,3.3055454E-1],"categories":[],"categories_nodes":[],"categories_segments":[],"categories_sizes":[],"default_left":[0,0,0,0,0,0,0,0,0,0,0,0,0,0,0,0,0,0,0,0,0,0,0,0,0,0,0,0,0,0,0,0,0,0,0,0,0,0,0,0,0,0,0,0,0,0,0,0,0,0,0],"id":14,"left_children":[1,3,5,7,9,11,13,15,-1,17,19,21,23,25,27,-1,-1,29,31,33,35,37,39,41,43,45,47,49,-1,-1,-1,-1,-1,-1,-1,-1,-1,-1,-1,-1,-1,-1,-1,-1,-1,-1,-1,-1,-1,-1,-1],"loss_changes":[1.902043E4,5.017419E3,2.6034746E3,3.9231445E2,1.1262397E3,2.5561438E2,3.6849512E2,8.409473E1,0E0,1.6664844E2,1.465647E2,4.579003E1,2.9239868E1,5.3604004E1,3.0605469E1,0E0,0E0,2.0579834E1,8.455566E0,1.5091064E1,1.5993179E1,8.226349E0,1.4571369E1,6.8161163E0,1.7127991E0,6.0927734E0,9.111328E-1,5.864746E0,0E0,0E0,0E0,0E0,0E0,0E0,0E0,0E0,0E0,0E0,0E0,0E0,0E0,0E0,0E0,0E0,0E0,0E0,0E0,0E0,0E0,0E0,0E0],"parents":[2147483647,0,0,1,1,2,2,3,3,4,4,5,5,6,6,7,7,9,9,10,10,11,11,12,12,13,13,14,14,17,17,18,18,19,19,20,20,21,21,22,22,23,23,24,24,25,25,26,26,27,27],"right_children":[2,4,6,8,10,12,14,16,-1,18,20,22,24,26,28,-1,-1,30,32,34,36,38,40,42,44,46,48,50,-1,-1,-1,-1,-1,-1,-1,-1,-1,-1,-1,-1,-1,-1,-1,-1,-1,-1,-1,-1,-1,-1,-1],"split_conditions":[-9.127988E-2,-1.8692248E0,5.766773E-1,-2.527359E0,-7.002997E-1,2.9181322E-1,1.0874681E0,-5.3607535E-1,-5.3075284E-1,-9.458721E-1,-3.4667528E-1,1.2482392E-1,4.0968803E-1,8.713643E-1,1.391978E0,-9.503421E-1,-7.2339857E-1,-1.1717988E0,-8.4764314E-1,-6.020707E-1,-2.2880048E-1,-2.9844484E-1,1.1485056E0,2.4026707E-1,1.0658598E0,6.650834E-1,1.2498012E0,1.19552E0,4.2153493E-1,-3.654215E-1,-3.0175152E-1,-2.5734034E-1,-2.193851E-1,-1.8128227E-1,-1.3771933E-1,-9.242031E-2,-5.4323565E-2,-1.3930826E-2,3.0071473E-2,4.0572803E-2,1.2012221E-1,9.9921905E-2,6.3654974E-2,1.3894111E-1,7.787713E-2,1.6848168E-1,2.0354874E-1,2.4497883E-1,2.9667696E-1,2.974536E-1,3.3055454E-1],"split_indices":[16,16,16,16,16,16,16,13,0,16,16,16,16,16,16,0,0,16,16,16,16,9,0,14,14,16,0,16,0,0,0,0,0,0,0,0,0,0,0,0,0,0,0,0,0,0,0,0,0,0,0],"split_type":[0,0,0,0,0,0,0,0,0,0,0,0,0,0,0,0,0,0,0,0,0,0,0,0,0,0,0,0,0,0,0,0,0,0,0,0,0,0,0,0,0,0,0,0,0,0,0,0,0,0,0],"sum_hessian":[4.39E3,1.849E3,2.541E3,2.21E2,1.628E3,1.121E3,1.42E3,1.23E2,9.8E1,7.24E2,9.04E2,5.9E2,5.31E2,7.92E2,6.28E2,4.5E1,7.8E1,3.11E2,4.13E2,4.37E2,4.67E2,3.32E2,2.58E2,2.72E2,2.59E2,4.3E2,3.62E2,5.89E2,3.9E1,1.47E2,1.64E2,1.52E2,2.61E2,1.29E2,3.08E2,1.92E2,2.75E2,2.83E2,4.9E1,2.33E2,2.5E1,1.9E2,8.2E1,2.5E2,9E0,1.06E2,3.24E2,3.34E2,2.8E1,2.54E2,3.35E2],"tree_param":{"num_deleted":"0","num_feature":"17","num_nodes":"51","size_leaf_vector":"1"}},{"base_weights":[-2.6558446E-2,-1.9631205E0,1.3156767E0,-5.171948E0,-1.3846447E0,4.756983E-1,2.1980846E0,-2.8643432E0,-6.3619213E0,-2.8785872E-1,-1.822059E0,1.1413563E0,-1.089998E-1,1.6954228E0,2.4817104E0,-1.7008696E0,-4.431694E0,-7.54601E0,-5.0638766E0,-1.0870037E0,5.0147426E-1,-2.6738527E0,-1.4782758E0,8.756159E-1,2.0400693E0,-8.833509E-1,2.0693037E-1,2.3926039E0,1.1155719E0,2.686695E0,1.5695893E0,-5.877166E-2,-2.8334832E-1,-5.231162E-1,-3.0893743E-1,-8.0055046E-1,-5.655028E-1,-5.19422E-1,-3.3571026E-1,-2.052046E-1,-6.511303E-3,8.28452E-2,-5.1359843E-2,-3.7284955E-1,-2.457423E-1,-1.7498665E-1,-6.7548275E-2,1.5539546E-1,4.8378296E-2,2.3959182E-1,1.6272159E-1,-7.071044E-2,-1.947049E-1,9.86142E-3,1.2573372E-1,2.7624863E-1,2.2329037E-1,5.565027E-2,1.3607925E-1,2.4882081E-1,2.9220292E-1,1.05180465E-1,2.172141E-1],"categories":[],"categories_nodes":[],"categories_segments":[],"categories_sizes":[],"default_left":[0,0,0,0,0,0,0,0,0,0,0,0,0,0,0,0,0,0,0,0,0,0,0,0,0,0,0,0,0,0,0,0,0,0,0,0,0,0,0,0,0,0,0,0,0,0,0,0,0,0,0,0,0,0,0,0,0,0,0,0,0,0,0],"id":15,"left_children":[1,3,5,7,9,11,13,15,17,19,21,23,25,27,29,31,33,35,37,39,41,43,45,47,49,51,53,55,57,59,61,-1,-1,-1,-1,-1,-1,-1,-1,-1,-1,-1,-1,-1,-1,-1,-1,-1,-1,-1,-1,-1,-1,-1,-1,-1,-1,-1,-1,-1,-1,-1,-1],"loss_changes":[1.1156272E4,3.254233E3,1.8779058E3,7.1770166E2,7.1430273E2,5.0609613E2,1.7200635E2,1.6205438E2,2.322998E2,2.6926227E2,3.0791406E2,1.4341888E2,1.6971892E2,1.7884412E2,1.4311621E2,6.7677185E1,2.5691467E1,3.2929688E1,1.916748E0,2.0893393E2,7.178534E1,6.0455566E1,1.6473962E2,1.2443787E2,1.6375366E1,3.630533E1,5.5967594E1,5.822876E0,3.3105255E1,2.2717285E1,4.3578125E1,0E0,0E0,0E0,0E0,0E0,0E0,0E0,0E0,0E0,0E0,0E0,0E0,0E0,0E0,0E0,0E0,0E0,0E0,0E0,0E0,0E0,0E0,0E0,0E0,0E0,0E0,0E0,0E0,0E0,0E0,0E0,0E0],"parents":[2147483647,0,0,1,1,2,2,3,3,4,4,5,5,6,6,7,7,8,8,9,9,10,10,11,11,12,12,13,13,14,14,15,15,16,16,17,17,18,18,19,19,20,20,21,21,22,22,23,23,24,24,25,25,26,26,27,27,28,28,29,29,30,30],"right_children":[2,4,6,8,10,12,14,16,18,20,22,24,26,28,30,32,34,36,38,40,42,44,46,48,50,52,54,56,58,60,62,-1,-1,-1,-1,-1,-1,-1,-1,-1,-1,-1,-1,-1,-1,-1,-1,-1,-1,-1,-1,-1,-1,-1,-1,-1,-1,-1,-1,-1,-1,-1,-1],"split_conditions":[-4.578176E-2,-1.9990436E0,6.521906E-1,-1.2922331E0,-6.688192E-1,1.355275E-1,8.901189E-1,1.584194E0,-2.5405393E0,-8.5687804E-1,-7.543891E-1,4.8301756E-1,2.3561333E-1,2.8898108E-1,9.7881806E-1,-3.2427526E0,-2.5405393E0,1.0268203E0,1.0823268E0,1.370281E0,1.1135831E0,-1.5514265E0,4.0591517E-1,-5.1620084E-1,-1.8489628E-1,1.1661327E0,1.0663782E0,-2.9555765E-1,-8.7469524E-1,1.1370764E0,1.2155919E0,-5.877166E-2,-2.8334832E-1,-5.231162E-1,-3.0893743E-1,-8.0055046E-1,-5.655028E-1,-5.19422E-1,-3.3571026E-1,-2.052046E-1,-6.511303E-3,8.28452E-2,-5.1359843E-2,-3.7284955E-1,-2.457423E-1,-1.7498665E-1,-6.7548275E-2,1.5539546E-1,4.8378296E-2,2.3959182E-1,1.6272159E-1,-7.071044E-2,-1.947049E-1,9.86142E-3,1.2573372E-1,2.7624863E-1,2.2329037E-1,5.565027E-2,1.3607925E-1,2.4882081E-1,2.9220292E-1,1.05180465E-1,2.172141E-1],"split_indices":[5,5,5,6,6,6,5,7,5,5,5,5,5,6,6,6,5,0,1,0,7,5,0,6,6,6,0,6,2,5,5,0,0,0,0,0,0,0,0,0,0,0,0,0,0,0,0,0,0,0,0,0,0,0,0,0,0,0,0,0,0,0,0],"split_type":[0,0,0,0,0,0,0,0,0,0,0,0,0,0,0,0,0,0,0,0,0,0,0,0,0,0,0,0,0,0,0,0,0,0,0,0,0,0,0,0,0,0,0,0,0,0,0,0,0,0,0,0,0,0,0,0,0,0,0,0,0,0,0],"sum_hessian":[4.29E3,1.756E3,2.534E3,2.67E2,1.489E3,1.299E3,1.235E3,9.2E1,1.75E2,4.25E2,1.064E3,6.07E2,6.92E2,4.48E2,7.87E2,5.4E1,3.8E1,8.9E1,8.6E1,2.11E2,2.14E2,3.04E2,7.6E2,4.7E2,1.37E2,2E2,4.92E2,2.02E2,2.46E2,6.41E2,1.46E2,2.8E1,2.6E1,2.2E1,1.6E1,6.9E1,2E1,7.8E1,8E0,1.08E2,1.03E2,1.62E2,5.2E1,4.9E1,2.55E2,5.67E2,1.93E2,1.71E2,2.99E2,7.1E1,6.6E1,1.73E2,2.7E1,4.47E2,4.5E1,5.6E1,1.46E2,7.6E1,1.7E2,3.54E2,2.87E2,8E1,6.6E1],"tree_param":{"num_deleted":"0","num_feature":"17","num_nodes":"63","size_leaf_vector":"1"}},{"base_weights":[6.208464E-3,-1.9761177E0,1.4832488E0,-5.6499596E0,-1.5190169E0,5.1391244E-1,2.167447E0,-7.24363E-1,-4.8639154E0,-2.2399397E0,-7.7955985E-1,9.7467326E-2,8.657166E-1,1.7902192E0,2.6784687E0,-5.465701E-1,-4.2773134E-1,-2.8094857E0,-1.8527699E0,-1.1351525E0,-5.382549E-1,-9.8883614E-2,2.6659268E-1,6.320942E-1,1.0735257E0,1.5636989E0,2.0083227E0,2.6133494E0,3.583242E-1,-3.2108983E-1,-2.6043987E-1,-2.0411444E-1,-1.6839726E-1,-1.4701274E-1,-1.0674506E-1,-6.869575E-2,-3.7858967E-2,-1.2501652E-2,4.113825E-2,1.2266135E-2,5.5984896E-2,5.5873837E-2,1.11836396E-1,9.819176E-2,1.272296E-1,1.4773045E-1,1.8026161E-1,1.8627897E-1,2.142537E-1,2.5134206E-1,2.7963907E-1],"categories":[],"categories_nodes":[],"categories_segments":[],"categories_sizes":[],"default_left":[0,0,0,0,0,0,0,0,0,0,0,0,0,0,0,0,0,0,0,0,0,0,0,0,0,0,0,0,0,0,0,0,0,0,0,0,0,0,0,0,0,0,0,0,0,0,0,0,0,0,0],"id":16,"left_children":[1,3,5,7,9,11,13,-1,15,17,19,21,23,25,27,-1,-1,29,31,33,35,37,39,41,43,45,47,49,-1,-1,-1,-1,-1,-1,-1,-1,-1,-1,-1,-1,-1,-1,-1,-1,-1,-1,-1,-1,-1,-1,-1],"loss_changes":[1.2789402E4,3.1233418E3,1.6589209E3,2.2282324E2,8.8318555E2,1.518435E2,2.7800146E2,0E0,2.6395508E1,1.8002393E2,6.983591E1,1.5833331E1,2.6605896E1,3.8705322E1,2.7224121E1,0E0,0E0,1.9463135E1,1.2556763E1,5.9372864E0,1.1397537E1,2.998407E0,1.0736773E1,8.899208E0,4.140564E0,6.0062256E0,4.3687744E0,3.6350098E0,0E0,0E0,0E0,0E0,0E0,0E0,0E0,0E0,0E0,0E0,0E0,0E0,0E0,0E0,0E0,0E0,0E0,0E0,0E0,0E0,0E0,0E0,0E0],"parents":[2147483647,0,0,1,1,2,2,3,3,4,4,5,5,6,6,8,8,9,9,10,10,11,11,12,12,13,13,14,14,17,17,18,18,19,19,20,20,21,21,22,22,23,23,24,24,25,25,26,26,27,27],"right_children":[2,4,6,8,10,12,14,-1,16,18,20,22,24,26,28,-1,-1,30,32,34,36,38,40,42,44,46,48,50,-1,-1,-1,-1,-1,-1,-1,-1,-1,-1,-1,-1,-1,-1,-1,-1,-1,-1,-1,-1,-1,-1,-1],"split_conditions":[-8.1456974E-2,-2.0558598E0,5.472086E-1,-3.2837224E0,-6.3153934E-1,2.2305292E-1,1.097291E0,-7.24363E-1,-2.438953E0,-9.458721E-1,-3.3685237E-1,5.606362E-2,3.703964E-1,8.222498E-1,1.391978E0,-5.465701E-1,-4.2773134E-1,-1.2405591E0,-7.8870577E-1,-1.0441805E0,-1.9933178E-1,1.4412251E-1,1.0912423E-1,1.1353959E0,1.0663782E0,7.73602E-1,9.695933E-1,1.2446345E0,3.583242E-1,-3.2108983E-1,-2.6043987E-1,-2.0411444E-1,-1.6839726E-1,-1.4701274E-1,-1.0674506E-1,-6.869575E-2,-3.7858967E-2,-1.2501652E-2,4.113825E-2,1.2266135E-2,5.5984896E-2,5.5873837E-2,1.11836396E-1,9.819176E-2,1.272296E-1,1.4773045E-1,1.8026161E-1,1.8627897E-1,2.142537E-1,2.5134206E-1,2.7963907E-1],"split_indices":[16,16,16,16,16,16,16,0,16,16,16,16,16,16,16,0,0,16,16,6,16,9,0,0,0,0,16,16,0,0,0,0,0,0,0,0,0,0,0,0,0,0,0,0,0,0,0,0,0,0,0],"split_type":[0,0,0,0,0,0,0,0,0,0,0,0,0,0,0,0,0,0,0,0,0,0,0,0,0,0,0,0,0,0,0,0,0,0,0,0,0,0,0,0,0,0,0,0,0,0,0,0,0,0,0],"sum_hessian":[4.366E3,1.864E3,2.502E3,2.05E2,1.659E3,1.036E3,1.466E3,6.5E1,1.4E2,8.39E2,8.2E2,4.75E2,5.61E2,8.46E2,6.2E2,6.5E1,7.5E1,3.37E2,5.02E2,3.3E2,4.9E2,2.2E2,2.55E2,2.66E2,2.95E2,4.19E2,4.27E2,5.82E2,3.8E1,1.09E2,2.28E2,2.32E2,2.7E2,5.2E1,2.78E2,2.52E2,2.38E2,2.1E2,1E1,1.72E2,8.3E1,2.33E2,3.3E1,2.06E2,8.9E1,3.13E2,1.06E2,2.12E2,2.15E2,3.86E2,1.96E2],"tree_param":{"num_deleted":"0","num_feature":"17","num_nodes":"51","size_leaf_vector":"1"}},{"base_weights":[1.9619534E-2,-1.6525544E0,9.878413E-1,-3.7608225E0,-1.1162937E0,1.9091064E-1,1.674423E0,-4.632909E0,-1.7202082E0,-1.4500968E0,1.0543417E-2,-1.4325798E-1,9.040468E-1,1.2136284E0,1.9881243E0,-6.1751924E0,-3.7224913E0,-1.0013763E0,-3.3960018E0,-1.5910813E0,-2.2374699E-2,5.65829E-1,-9.7849417E-1,-2.7883676E-1,9.1132134E-1,4.208572E-1,1.2947595E0,6.91619E-1,1.7095801E0,1.3943504E0,2.1439912E0,-7.012901E-1,-5.2104014E-1,-3.9718506E-1,-1.31321E-1,-2.308208E-1,-4.692584E-2,-2.4165705E-1,-4.582149E-1,-1.8649042E-1,-1.1684704E-1,-1.18736975E-1,1.7460337E-2,-6.064902E-3,1.18628755E-1,-1.947942E-2,-1.5630226E-1,-7.363549E-2,5.2387365E-3,-6.7260444E-2,1.2478987E-1,2.2970953E-3,1.14282034E-1,1.489412E-1,8.359107E-2,-5.9652206E-2,7.581565E-2,1.3924956E-1,1.9315541E-1,9.221671E-2,1.9271876E-1,1.956182E-1,2.3537219E-1],"categories":[],"categories_nodes":[],"categories_segments":[],"categories_sizes":[],"default_left":[0,0,0,0,0,0,0,0,0,0,0,0,0,0,0,0,0,0,0,0,0,0,0,0,0,0,0,0,0,0,0,0,0,0,0,0,0,0,0,0,0,0,0,0,0,0,0,0,0,0,0,0,0,0,0,0,0,0,0,0,0,0,0],"id":17,"left_children":[1,3,5,7,9,11,13,15,17,19,21,23,25,27,29,31,33,35,37,39,41,43,45,47,49,51,53,55,57,59,61,-1,-1,-1,-1,-1,-1,-1,-1,-1,-1,-1,-1,-1,-1,-1,-1,-1,-1,-1,-1,-1,-1,-1,-1,-1,-1,-1,-1,-1,-1,-1,-1],"loss_changes":[7.0201504E3,1.7934263E3,1.5021763E3,5.650591E2,4.7733923E2,3.0325693E2,2.1080078E2,2.9293994E2,1.1465149E2,1.9702393E2,1.6037038E2,1.2421655E2,7.610315E1,1.5415247E2,7.808423E1,2.9733643E1,8.129602E1,4.7594055E1,2.2617645E1,1.0092798E2,2.0630901E1,7.275953E1,4.7795494E1,1.1657362E2,5.3617577E1,5.254218E1,1.876178E1,2.5650894E1,1.8918335E1,4.476822E1,2.265332E1,0E0,0E0,0E0,0E0,0E0,0E0,0E0,0E0,0E0,0E0,0E0,0E0,0E0,0E0,0E0,0E0,0E0,0E0,0E0,0E0,0E0,0E0,0E0,0E0,0E0,0E0,0E0,0E0,0E0,0E0,0E0,0E0],"parents":[2147483647,0,0,1,1,2,2,3,3,4,4,5,5,6,6,7,7,8,8,9,9,10,10,11,11,12,12,13,13,14,14,15,15,16,16,17,17,18,18,19,19,20,20,21,21,22,22,23,23,24,24,25,25,26,26,27,27,28,28,29,29,30,30],"right_children":[2,4,6,8,10,12,14,16,18,20,22,24,26,28,30,32,34,36,38,40,42,44,46,48,50,52,54,56,58,60,62,-1,-1,-1,-1,-1,-1,-1,-1,-1,-1,-1,-1,-1,-1,-1,-1,-1,-1,-1,-1,-1,-1,-1,-1,-1,-1,-1,-1,-1,-1,-1,-1],"split_conditions":[-1.4212494E-1,-1.768679E0,5.796946E-1,1.2260255E0,1.0663782E0,5.9649384E-1,8.4298337E-1,-2.642714E0,1.584194E0,7.166589E-1,7.042097E-1,1.0091678E0,1.3856812E-1,-1.9381352E-2,-1.2558603E0,-5.3607535E-1,2.2093701E0,1.4240863E0,7.151127E-1,-4.5001054E-1,-5.052292E-2,1.6202395E0,1.0991954E0,2.1933444E-1,-8.617193E-1,9.3368644E-1,5.0769657E-1,-2.0624063E0,4.235791E-1,1.2155919E0,1.0762268E0,-7.012901E-1,-5.2104014E-1,-3.9718506E-1,-1.31321E-1,-2.308208E-1,-4.692584E-2,-2.4165705E-1,-4.582149E-1,-1.8649042E-1,-1.1684704E-1,-1.18736975E-1,1.7460337E-2,-6.064902E-3,1.18628755E-1,-1.947942E-2,-1.5630226E-1,-7.363549E-2,5.2387365E-3,-6.7260444E-2,1.2478987E-1,2.2970953E-3,1.14282034E-1,1.489412E-1,8.359107E-2,-5.9652206E-2,7.581565E-2,1.3924956E-1,1.9315541E-1,9.221671E-2,1.9271876E-1,1.956182E-1,2.3537219E-1],"split_indices":[5,5,5,1,0,1,5,5,7,13,7,0,5,1,2,13,0,1,15,5,1,0,12,5,2,1,7,2,1,5,5,0,0,0,0,0,0,0,0,0,0,0,0,0,0,0,0,0,0,0,0,0,0,0,0,0,0,0,0,0,0,0,0],"split_type":[0,0,0,0,0,0,0,0,0,0,0,0,0,0,0,0,0,0,0,0,0,0,0,0,0,0,0,0,0,0,0,0,0,0,0,0,0,0,0,0,0,0,0,0,0,0,0,0,0,0,0,0,0,0,0,0,0,0,0,0,0,0,0],"sum_hessian":[4.334E3,1.589E3,2.745E3,3.21E2,1.268E3,1.271E3,1.474E3,2.24E2,9.7E1,9.78E2,2.9E2,8.66E2,4.05E2,5.99E2,8.75E2,8.1E1,1.43E2,6.9E1,2.8E1,8.9E2,8.8E1,1.86E2,1.04E2,7.68E2,9.8E1,1.82E2,2.23E2,2.93E2,3.06E2,1.84E2,6.91E2,4E1,4.1E1,1.29E2,1.4E1,1.9E1,5E1,1.7E1,1.1E1,5.38E2,3.52E2,1.2E1,7.6E1,9.3E1,9.3E1,4.5E1,5.9E1,3.22E2,4.46E2,1.7E1,8.1E1,1.18E2,6.4E1,1.55E2,6.8E1,1.4E1,2.79E2,1.29E2,1.77E2,9.9E1,8.5E1,3.7E2,3.21E2],"tree_param":{"num_deleted":"0","num_feature":"17","num_nodes":"63","size_leaf_vector":"1"}},{"base_weights":[-2.372751E-2,-1.6254599E0,8.260763E-1,-4.3221345E0,-1.2249458E0,1.2604803E-1,1.4785274E0,-2.7002938E0,-5.4033856E0,-2.2940494E-2,-1.5509502E0,5.484422E-1,-4.0457487E-1,1.0719022E0,1.7741249E0,-3.1557062E0,-1.10422574E-1,-6.480815E-1,-4.629229E0,-5.247496E-1,7.434193E-1,-2.9031303E0,-1.3329271E0,1.2344178E0,3.278916E-1,-8.368127E-1,-1.2194276E-1,1.6122776E0,6.4024824E-1,1.8958516E0,9.2697906E-1,-3.4022766E-1,-4.07664E-3,4.745167E-2,-6.795873E-2,-3.5285088E-1,-4.9104095E-1,-1.13039665E-1,4.322308E-2,3.3064175E-2,1.4501648E-1,-2.5173137E-1,-3.833675E-1,-1.5333675E-1,-5.7205368E-2,1.757496E-1,9.3207896E-2,-8.518982E-3,7.0197575E-2,-1.7586641E-1,-7.073737E-2,-2.6879927E-2,5.3422596E-2,1.8717085E-1,1.3914822E-1,1.7742237E-2,7.8683905E-2,2.2067285E-1,1.7550862E-1,4.085105E-2,1.3282575E-1],"categories":[],"categories_nodes":[],"categories_segments":[],"categories_sizes":[],"default_left":[0,0,0,0,0,0,0,0,0,0,0,0,0,0,0,0,0,0,0,0,0,0,0,0,0,0,0,0,0,0,0,0,0,0,0,0,0,0,0,0,0,0,0,0,0,0,0,0,0,0,0,0,0,0,0,0,0,0,0,0,0],"id":18,"left_children":[1,3,5,7,9,11,13,15,17,19,21,23,25,27,29,31,33,-1,35,37,39,41,43,45,47,49,51,53,55,57,59,-1,-1,-1,-1,-1,-1,-1,-1,-1,-1,-1,-1,-1,-1,-1,-1,-1,-1,-1,-1,-1,-1,-1,-1,-1,-1,-1,-1,-1,-1],"loss_changes":[5.933271E3,1.6266704E3,1.3005925E3,3.273645E2,5.1604297E2,3.084034E2,1.7526953E2,9.400824E1,6.675415E1,1.08837814E2,3.0155005E2,1.1548518E2,7.441815E1,1.442857E2,8.610132E1,5.2088806E1,4.650524E0,0E0,4.6481934E0,9.959886E1,3.219413E1,4.168921E1,1.3546631E2,2.7777191E1,8.98401E1,2.751294E1,3.5797783E1,1.3205139E1,2.347081E1,2.8684814E1,2.2134872E1,0E0,0E0,0E0,0E0,0E0,0E0,0E0,0E0,0E0,0E0,0E0,0E0,0E0,0E0,0E0,0E0,0E0,0E0,0E0,0E0,0E0,0E0,0E0,0E0,0E0,0E0,0E0,0E0,0E0,0E0],"parents":[2147483647,0,0,1,1,2,2,3,3,4,4,5,5,6,6,7,7,8,8,9,9,10,10,11,11,12,12,13,13,14,14,15,15,16,16,18,18,19,19,20,20,21,21,22,22,23,23,24,24,25,25,26,26,27,27,28,28,29,29,30,30],"right_children":[2,4,6,8,10,12,14,16,18,20,22,24,26,28,30,32,34,-1,36,38,40,42,44,46,48,50,52,54,56,58,60,-1,-1,-1,-1,-1,-1,-1,-1,-1,-1,-1,-1,-1,-1,-1,-1,-1,-1,-1,-1,-1,-1,-1,-1,-1,-1,-1,-1,-1,-1],"split_conditions":[-2.270264E-1,-2.323339E0,5.796946E-1,-1.0441805E0,-1.0845675E0,2.331319E-1,8.4298337E-1,3.0615592E0,-5.3607535E-1,-9.448416E-1,-1.3013545E0,-6.332487E-1,1.8574576E-1,3.1306395E-1,1.1262128E0,1.633022E-1,9.525292E-2,-6.480815E-1,2.901039E-1,1.3904729E0,1.4702593E0,5.9911285E-2,7.550162E-1,-1.1181138E0,1.7047161E-1,-1.6459049E0,5.129443E-1,-1.1747684E-1,-9.6552664E-1,3.1976798E-1,1.1370764E0,-3.4022766E-1,-4.07664E-3,4.745167E-2,-6.795873E-2,-3.5285088E-1,-4.9104095E-1,-1.13039665E-1,4.322308E-2,3.3064175E-2,1.4501648E-1,-2.5173137E-1,-3.833675E-1,-1.5333675E-1,-5.7205368E-2,1.757496E-1,9.3207896E-2,-8.518982E-3,7.0197575E-2,-1.7586641E-1,-7.073737E-2,-2.6879927E-2,5.3422596E-2,1.8717085E-1,1.3914822E-1,1.7742237E-2,7.8683905E-2,2.2067285E-1,1.7550862E-1,4.085105E-2,1.3282575E-1],"split_indices":[5,5,5,6,6,6,5,15,13,5,5,6,5,6,6,8,10,0,10,1,0,6,0,6,5,2,0,6,2,6,5,0,0,0,0,0,0,0,0,0,0,0,0,0,0,0,0,0,0,0,0,0,0,0,0,0,0,0,0,0,0],"split_type":[0,0,0,0,0,0,0,0,0,0,0,0,0,0,0,0,0,0,0,0,0,0,0,0,0,0,0,0,0,0,0,0,0,0,0,0,0,0,0,0,0,0,0,0,0,0,0,0,0,0,0,0,0,0,0,0,0,0,0,0,0],"sum_hessian":[4.357E3,1.51E3,2.847E3,1.94E2,1.316E3,1.374E3,1.473E3,7.9E1,1.15E2,2.81E2,1.035E3,7.65E2,6.09E2,6.22E2,8.51E2,6.7E1,1.2E1,4.5E1,7E1,1.7E2,1.11E2,1.42E2,8.93E2,1.85E2,5.8E2,2.4E2,3.69E2,2.75E2,3.47E2,7.43E2,1.08E2,6.2E1,5E0,6E0,6E0,1.7E1,5.3E1,1.04E2,6.6E1,7.1E1,4E1,1.03E2,3.9E1,7.06E2,1.87E2,6.6E1,1.19E2,2.76E2,3.04E2,2.8E1,2.12E2,3.02E2,6.7E1,1.23E2,1.52E2,8.4E1,2.63E2,2.27E2,5.16E2,4.8E1,6E1],"tree_param":{"num_deleted":"0","num_feature":"17","num_nodes":"61","size_leaf_vector":"1"}},{"base_weights":[-1.3813871E-2,-1.5053014E0,1.1066028E0,-4.3006945E0,-1.1589568E0,4.216561E-1,1.64056E0,-5.556161E-1,-3.794946E0,-1.8279392E0,-6.9505733E-1,1.4193016E-1,7.6687604E-1,1.3812413E0,2.0270717E0,-4.2453566E-1,-3.140634E-1,-2.1712735E0,-1.5166327E0,-9.7121066E-1,-4.268712E-1,6.3881755E-2,5.5508393E-1,5.8453095E-1,9.213454E-1,1.22E0,1.5551219E0,1.9597315E0,2.7722496E-1,-2.26523E-1,-1.9155611E-1,-1.2418882E-1,-1.5661958E-1,-8.9134894E-2,-1.2204063E-1,-5.4071754E-2,-2.9831594E-2,-8.357447E-3,2.570873E-2,6.6203944E-2,1.8683193E-2,6.732242E-2,3.6724497E-2,9.515342E-2,5.4738965E-2,1.4771387E-1,1.1236763E-1,1.7857185E-1,1.4286922E-1,1.8660681E-1,2.1060573E-1],"categories":[],"categories_nodes":[],"categories_segments":[],"categories_sizes":[],"default_left":[0,0,0,0,0,0,0,0,0,0,0,0,0,0,0,0,0,0,0,0,0,0,0,0,0,0,0,0,0,0,0,0,0,0,0,0,0,0,0,0,0,0,0,0,0,0,0,0,0,0,0],"id":19,"left_children":[1,3,5,7,9,11,13,-1,15,17,19,21,23,25,27,-1,-1,29,31,33,35,37,39,41,43,45,47,49,-1,-1,-1,-1,-1,-1,-1,-1,-1,-1,-1,-1,-1,-1,-1,-1,-1,-1,-1,-1,-1,-1,-1],"loss_changes":[7.29262E3,1.8074282E3,9.107129E2,1.097146E2,5.1606714E2,1.0543886E2,1.3752148E2,0E0,3.0873291E1,6.960083E1,7.260904E1,1.9473366E1,1.3234985E1,2.168164E1,2.2668213E1,0E0,0E0,3.3970947E0,2.9707642E0,8.56427E0,7.1857452E0,1.4551059E1,3.6574192E0,4.1274567E0,2.448227E0,9.263123E0,9.139587E0,3.1555176E0,0E0,0E0,0E0,0E0,0E0,0E0,0E0,0E0,0E0,0E0,0E0,0E0,0E0,0E0,0E0,0E0,0E0,0E0,0E0,0E0,0E0,0E0,0E0],"parents":[2147483647,0,0,1,1,2,2,3,3,4,4,5,5,6,6,8,8,9,9,10,10,11,11,12,12,13,13,14,14,17,17,18,18,19,19,20,20,21,21,22,22,23,23,24,24,25,25,26,26,27,27],"right_children":[2,4,6,8,10,12,14,-1,16,18,20,22,24,26,28,-1,-1,30,32,34,36,38,40,42,44,46,48,50,-1,-1,-1,-1,-1,-1,-1,-1,-1,-1,-1,-1,-1,-1,-1,-1,-1,-1,-1,-1,-1,-1,-1],"split_conditions":[-8.1456974E-2,-2.0558598E0,5.865002E-1,-3.421243E0,-7.4941415E-1,3.016361E-1,1.1169368E0,-5.556161E-1,-2.438953E0,-9.9498665E-1,-3.5649818E-1,-2.9844484E-1,4.0968803E-1,8.811872E-1,1.391978E0,-4.2453566E-1,-3.140634E-1,-1.0932157E0,4.6323526E-1,9.4829416E-1,-1.9933178E-1,1.3464682E-1,7.2652256E-1,1.8439321E-1,9.224734E-1,-3.513754E-1,7.026238E-1,1.2348115E0,2.7722496E-1,-2.26523E-1,-1.9155611E-1,-1.2418882E-1,-1.5661958E-1,-8.9134894E-2,-1.2204063E-1,-5.4071754E-2,-2.9831594E-2,-8.357447E-3,2.570873E-2,6.6203944E-2,1.8683193E-2,6.732242E-2,3.6724497E-2,9.515342E-2,5.4738965E-2,1.4771387E-1,1.1236763E-1,1.7857185E-1,1.4286922E-1,1.8660681E-1,2.1060573E-1],"split_indices":[16,16,16,16,16,16,16,0,16,16,16,9,16,16,16,0,0,16,11,7,16,16,2,14,5,14,5,16,0,0,0,0,0,0,0,0,0,0,0,0,0,0,0,0,0,0,0,0,0,0,0],"split_type":[0,0,0,0,0,0,0,0,0,0,0,0,0,0,0,0,0,0,0,0,0,0,0,0,0,0,0,0,0,0,0,0,0,0,0,0,0,0,0,0,0,0,0,0,0,0,0,0,0,0,0],"sum_hessian":[4.362E3,1.871E3,2.491E3,2.05E2,1.666E3,1.092E3,1.399E3,5.6E1,1.49E2,6.81E2,9.85E2,6.04E2,4.88E2,8.4E2,5.59E2,8.5E1,6.4E1,3.21E2,3.6E2,4.84E2,5.01E2,5.09E2,9.5E1,2.26E2,2.62E2,4.4E2,4E2,5.16E2,4.3E1,2.29E2,9.2E1,5.9E1,3.01E2,3.7E2,1.14E2,2.64E2,2.37E2,2.89E2,2.2E2,7.3E1,2.2E1,1.59E2,6.7E1,2.41E2,2.1E1,1.16E2,3.24E2,1.37E2,2.63E2,3.23E2,1.93E2],"tree_param":{"num_deleted":"0","num_feature":"17","num_nodes":"51","size_leaf_vector":"1"}},{"base_weights":[-2.08641E-2,-1.4452399E0,9.435137E-1,-3.8055766E0,-1.1318244E0,2.6252598E-1,1.440827E0,-4.8329983E0,-3.370283E0,-1.6480206E0,-6.9100577E-1,-4.178506E-2,5.270578E-1,1.1283528E0,1.7267187E0,-5.472096E-1,-4.1636452E-1,-3.603426E-1,-2.514609E-1,-1.9766308E0,-1.3619637E0,-8.644455E-1,-4.2116064E-1,-1.0785581E-1,3.0599883E-1,3.9073285E-1,7.634821E-1,1.0908198E0,1.6947829E0,1.6499368E0,2.1331618E0,-2.1959214E-1,-1.8431804E-1,-1.0520712E-1,-1.415772E-1,-8.156914E-2,-1.2384571E-1,-3.895537E-2,-7.7695176E-2,-1.2929901E-2,3.6392815E-2,-2.0727413E-2,3.420201E-2,2.5440399E-2,5.5363294E-2,9.720345E-2,6.291605E-2,9.500771E-2,1.2107223E-1,1.3599798E-1,1.9807681E-1,2.3562787E-1,1.6254388E-1,2.0002277E-1,2.6404455E-1],"categories":[],"categories_nodes":[],"categories_segments":[],"categories_sizes":[],"default_left":[0,0,0,0,0,0,0,0,0,0,0,0,0,0,0,0,0,0,0,0,0,0,0,0,0,0,0,0,0,0,0,0,0,0,0,0,0,0,0,0,0,0,0,0,0,0,0,0,0,0,0,0,0,0,0],"id":20,"left_children":[1,3,5,7,9,11,13,15,17,19,21,23,25,27,29,-1,-1,-1,-1,31,33,35,37,39,41,43,45,47,49,51,53,-1,-1,-1,-1,-1,-1,-1,-1,-1,-1,-1,-1,-1,-1,-1,-1,-1,-1,-1,-1,-1,-1,-1,-1],"loss_changes":[5.9917915E3,1.2984204E3,8.8048755E2,7.5841064E1,3.5292725E2,8.8491486E1,1.3232031E2,2.4552002E0,2.046399E1,6.4612915E1,3.8996338E1,1.1797915E1,1.8653214E1,1.3479614E1,2.0916016E1,0E0,0E0,0E0,0E0,5.638916E0,4.9468994E0,8.307678E0,3.41959E0,4.4072905E0,1.5869694E0,8.187153E0,5.3832474E0,1.0308105E1,1.4233932E0,7.642578E0,2.8781128E0,0E0,0E0,0E0,0E0,0E0,0E0,0E0,0E0,0E0,0E0,0E0,0E0,0E0,0E0,0E0,0E0,0E0,0E0,0E0,0E0,0E0,0E0,0E0,0E0],"parents":[2147483647,0,0,1,1,2,2,3,3,4,4,5,5,6,6,7,7,8,8,9,9,10,10,11,11,12,12,13,13,14,14,19,19,20,20,21,21,22,22,23,23,24,24,25,25,26,26,27,27,28,28,29,29,30,30],"right_children":[2,4,6,8,10,12,14,16,18,20,22,24,26,28,30,-1,-1,-1,-1,32,34,36,38,40,42,44,46,48,50,52,54,-1,-1,-1,-1,-1,-1,-1,-1,-1,-1,-1,-1,-1,-1,-1,-1,-1,-1,-1,-1,-1,-1,-1,-1],"split_conditions":[-1.6004017E-1,-2.0558598E0,5.07917E-1,-3.2837224E0,-7.2976834E-1,1.6411552E-1,9.892391E-1,-8.395153E-2,-2.2817864E0,-9.9498665E-1,-3.2702947E-1,-2.9844484E-1,2.66786E-1,2.0423775E0,1.3035719E0,-5.472096E-1,-4.1636452E-1,-3.603426E-1,-2.514609E-1,-1.2405591E0,4.6323526E-1,4.8528853E-1,4.0005106E-1,2.2093701E0,-1.0635571E0,3.4092772E-1,-6.426785E-1,7.534895E-1,7.436666E-1,1.5848489E-1,1.4410925E0,-2.1959214E-1,-1.8431804E-1,-1.0520712E-1,-1.415772E-1,-8.156914E-2,-1.2384571E-1,-3.895537E-2,-7.7695176E-2,-1.2929901E-2,3.6392815E-2,-2.0727413E-2,3.420201E-2,2.5440399E-2,5.5363294E-2,9.720345E-2,6.291605E-2,9.500771E-2,1.2107223E-1,1.3599798E-1,1.9807681E-1,2.3562787E-1,1.6254388E-1,2.0002277E-1,2.6404455E-1],"split_indices":[16,16,16,16,16,16,16,12,16,16,16,9,0,0,16,0,0,0,0,16,11,8,5,0,5,16,12,16,16,5,16,0,0,0,0,0,0,0,0,0,0,0,0,0,0,0,0,0,0,0,0,0,0,0,0],"split_type":[0,0,0,0,0,0,0,0,0,0,0,0,0,0,0,0,0,0,0,0,0,0,0,0,0,0,0,0,0,0,0,0,0,0,0,0,0,0,0,0,0,0,0,0,0,0,0,0,0,0,0,0,0,0,0],"sum_hessian":[4.36E3,1.76E3,2.6E3,2.05E2,1.555E3,1.098E3,1.502E3,5.8E1,1.47E2,7.15E2,8.4E2,5.11E2,5.87E2,7.2E2,7.82E2,2.6E1,3.2E1,1.13E2,3.4E1,3.3E2,3.85E2,5.1E2,3.3E2,4.3E2,8.1E1,3.74E2,2.13E2,6.78E2,4.2E1,6.62E2,1.2E2,1.19E2,2.11E2,6E1,3.25E2,4.54E2,5.6E1,3.05E2,2.5E1,4.12E2,1.8E1,5E0,7.6E1,2.05E2,1.69E2,8.1E1,1.32E2,3.16E2,3.62E2,2.2E1,2E1,1.9E1,6.43E2,9.9E1,2.1E1],"tree_param":{"num_deleted":"0","num_feature":"17","num_nodes":"55","size_leaf_vector":"1"}},{"base_weights":[-1.9736057E-3,-1.179679E0,9.262559E-1,-3.3016405E0,-9.077717E-1,4.1648957E-1,1.3886195E0,-3.965931E0,-2.613154E0,-1.3971632E0,-4.9370757E-1,1.9375867E-1,7.4347866E-1,1.1632034E0,1.6648598E0,-4.7497818E-1,-3.5886693E-1,-2.6486788E0,-1.01845555E-1,-1.6991817E0,-1.1477497E0,-6.968621E-1,-3.0069777E-1,1.3608776E-1,6.168946E-1,5.7152855E-1,8.740275E-1,1.0946836E0,1.6220723E0,1.6115048E0,2.2934273E-1,-2.892503E-1,-2.3398517E-1,-1.7397492E-1,-1.1524451E-1,-9.154488E-2,-1.2079399E-1,-6.771997E-2,-1.5763347E-1,-1.0661626E-2,-3.7975017E-2,-1.0483087E-3,2.6239643E-2,1.0147909E-1,3.800308E-2,5.4441363E-2,9.977799E-2,7.392172E-2,9.9448115E-2,9.74552E-2,1.2378352E-1,1.885124E-1,1.4166662E-1,1.9741246E-1,1.584019E-1],"categories":[],"categories_nodes":[],"categories_segments":[],"categories_sizes":[],"default_left":[0,0,0,0,0,0,0,0,0,0,0,0,0,0,0,0,0,0,0,0,0,0,0,0,0,0,0,0,0,0,0,0,0,0,0,0,0,0,0,0,0,0,0,0,0,0,0,0,0,0,0,0,0,0,0],"id":21,"left_children":[1,3,5,7,9,11,13,15,17,19,21,23,25,27,29,-1,-1,31,-1,33,35,37,39,41,43,45,47,49,51,53,-1,-1,-1,-1,-1,-1,-1,-1,-1,-1,-1,-1,-1,-1,-1,-1,-1,-1,-1,-1,-1,-1,-1,-1,-1],"loss_changes":[4.7247275E3,1.0961436E3,5.691023E2,8.842529E1,3.41771E2,8.3683914E1,7.6958496E1,1.4891968E1,3.477356E0,5.635315E1,3.5746765E1,1.6656256E1,9.961212E0,2.0264893E1,1.5319702E1,0E0,0E0,1.2138062E0,0E0,5.713623E0,4.864624E0,6.6449585E0,7.2012215E0,1.1203218E1,7.342621E0,1.8145828E0,3.5355682E0,9.335449E0,2.1382751E0,2.1154785E0,0E0,0E0,0E0,0E0,0E0,0E0,0E0,0E0,0E0,0E0,0E0,0E0,0E0,0E0,0E0,0E0,0E0,0E0,0E0,0E0,0E0,0E0,0E0,0E0,0E0],"parents":[2147483647,0,0,1,1,2,2,3,3,4,4,5,5,6,6,7,7,8,8,9,9,10,10,11,11,12,12,13,13,14,14,17,17,19,19,20,20,21,21,22,22,23,23,24,24,25,25,26,26,27,27,28,28,29,29],"right_children":[2,4,6,8,10,12,14,16,18,20,22,24,26,28,30,-1,-1,32,-1,34,36,38,40,42,44,46,48,50,52,54,-1,-1,-1,-1,-1,-1,-1,-1,-1,-1,-1,-1,-1,-1,-1,-1,-1,-1,-1,-1,-1,-1,-1,-1,-1],"split_conditions":[-5.1988278E-2,-1.8692248E0,6.847292E-1,-2.527359E0,-6.7083097E-1,3.703964E-1,1.1169368E0,-6.074013E-1,2.5011973E0,-9.164035E-1,-2.9756078E-1,1.0918417E0,1.4050701E-1,1.0663782E0,1.391978E0,-4.7497818E-1,-3.5886693E-1,-2.2817864E0,-1.01845555E-1,7.6606214E-1,-9.1753113E-1,4.3618965E-1,-9.216288E-2,1.4446972E-1,-8.2828104E-1,1.3663329E0,4.980941E-1,9.401246E-1,-4.5001823E-1,5.857306E-1,2.2934273E-1,-2.892503E-1,-2.3398517E-1,-1.7397492E-1,-1.1524451E-1,-9.154488E-2,-1.2079399E-1,-6.771997E-2,-1.5763347E-1,-1.0661626E-2,-3.7975017E-2,-1.0483087E-3,2.6239643E-2,1.0147909E-1,3.800308E-2,5.4441363E-2,9.977799E-2,7.392172E-2,9.9448115E-2,9.74552E-2,1.2378352E-1,1.885124E-1,1.4166662E-1,1.9741246E-1,1.584019E-1],"split_indices":[16,16,16,16,16,16,16,13,7,16,16,0,0,0,16,0,0,16,0,15,13,5,5,16,7,13,16,16,14,5,0,0,0,0,0,0,0,0,0,0,0,0,0,0,0,0,0,0,0,0,0,0,0,0,0],"split_type":[0,0,0,0,0,0,0,0,0,0,0,0,0,0,0,0,0,0,0,0,0,0,0,0,0,0,0,0,0,0,0,0,0,0,0,0,0,0,0,0,0,0,0,0,0,0,0,0,0,0,0,0,0,0,0],"sum_hessian":[4.32E3,1.904E3,2.416E3,2.15E2,1.689E3,1.15E3,1.266E3,1.07E2,1.08E2,7.73E2,9.16E2,6.85E2,4.65E2,7E2,5.66E2,3.1E1,7.6E1,1.05E2,3E0,3.47E2,4.26E2,4.45E2,4.71E2,6.04E2,8.1E1,2.03E2,2.62E2,6.12E2,8.8E1,5.25E2,4.1E1,5.4E1,5.1E1,3.21E2,2.6E1,9.1E1,3.35E2,4.37E2,8E0,1.37E2,3.34E2,2.8E2,3.24E2,2.9E1,5.2E1,1.93E2,1E1,1.27E2,1.35E2,3.37E2,2.75E2,3.5E1,5.3E1,3.2E1,4.93E2],"tree_param":{"num_deleted":"0","num_feature":"17","num_nodes":"55","size_leaf_vector":"1"}},{"base_weights":[-1.0366084E-2,-1.0954139E0,8.061751E-1,-2.8496406E0,-8.0510813E-1,2.5136876E-1,1.1556983E0,-3.6112032E0,-2.1952162E0,-1.2699758E0,-5.099306E-1,-1.2722458E-2,3.8343439E-1,9.5191765E-1,1.4613115E0,-4.6656948E-1,-3.2699006E0,-2.577875E-1,-1.989296E-1,-1.4992877E0,-1.0586289E0,-7.324492E-1,-3.5215148E-1,-5.9448186E-2,2.6587695E-1,2.5166574E-1,6.027296E-1,8.618757E-1,1.1251104E0,1.4173359E0,2.1145569E-1,-3.425568E-1,-2.4751297E-1,-1.7362665E-1,-1.3792264E-1,-8.8081315E-2,-1.1075435E-1,-6.7763805E-2,-1.12484775E-1,-4.7457498E-2,-2.7279431E-2,4.2048693E-3,-1.9005293E-2,3.5862733E-2,5.0284322E-3,1.3704914E-2,3.9464783E-2,9.568098E-2,5.2197363E-2,7.7491075E-2,1.03850745E-1,1.4147632E-1,1.0339739E-1,1.3054252E-1,1.5005971E-1],"categories":[],"categories_nodes":[],"categories_segments":[],"categories_sizes":[],"default_left":[0,0,0,0,0,0,0,0,0,0,0,0,0,0,0,0,0,0,0,0,0,0,0,0,0,0,0,0,0,0,0,0,0,0,0,0,0,0,0,0,0,0,0,0,0,0,0,0,0,0,0,0,0,0,0],"id":22,"left_children":[1,3,5,7,9,11,13,15,17,19,21,23,25,27,29,-1,31,-1,-1,33,35,37,39,41,43,45,47,49,51,53,-1,-1,-1,-1,-1,-1,-1,-1,-1,-1,-1,-1,-1,-1,-1,-1,-1,-1,-1,-1,-1,-1,-1,-1,-1],"loss_changes":[3.8274578E3,9.4238696E2,4.7771667E2,1.2314795E2,2.1794153E2,3.3277897E1,9.277344E1,2.7931763E1,6.218689E0,2.836377E1,3.400824E1,4.168471E0,1.8226318E1,1.32213745E1,1.4325195E1,0E0,3.15094E0,0E0,0E0,5.970215E0,1.8511963E0,7.9269104E0,5.43734E0,3.6401281E0,9.017966E-1,6.4847736E0,6.305969E0,8.457855E0,6.667755E0,3.3336182E0,0E0,0E0,0E0,0E0,0E0,0E0,0E0,0E0,0E0,0E0,0E0,0E0,0E0,0E0,0E0,0E0,0E0,0E0,0E0,0E0,0E0,0E0,0E0,0E0,0E0],"parents":[2147483647,0,0,1,1,2,2,3,3,4,4,5,5,6,6,7,7,8,8,9,9,10,10,11,11,12,12,13,13,14,14,16,16,19,19,20,20,21,21,22,22,23,23,24,24,25,25,26,26,27,27,28,28,29,29],"right_children":[2,4,6,8,10,12,14,16,18,20,22,24,26,28,30,-1,32,-1,-1,34,36,38,40,42,44,46,48,50,52,54,-1,-1,-1,-1,-1,-1,-1,-1,-1,-1,-1,-1,-1,-1,-1,-1,-1,-1,-1,-1,-1,-1,-1,-1,-1],"split_conditions":[-7.163408E-2,-1.5254233E0,4.882712E-1,-2.527359E0,-7.2976834E-1,1.3464682E-1,1.0874681E0,-6.750878E-1,-2.2817864E0,-9.164035E-1,-4.1543558E-1,-2.9844484E-1,1.9241656E-1,8.910101E-1,1.391978E0,-4.6656948E-1,2.0423775E0,-2.577875E-1,-1.989296E-1,-4.774203E-1,-8.178503E-1,1.1281154E0,-2.4844627E-1,-2.2460012E-1,7.127429E-1,3.3110482E-1,-9.140681E-1,7.0906E-1,5.590712E-1,1.19552E0,2.1145569E-1,-3.425568E-1,-2.4751297E-1,-1.7362665E-1,-1.3792264E-1,-8.8081315E-2,-1.1075435E-1,-6.7763805E-2,-1.12484775E-1,-4.7457498E-2,-2.7279431E-2,4.2048693E-3,-1.9005293E-2,3.5862733E-2,5.0284322E-3,1.3704914E-2,3.9464783E-2,9.568098E-2,5.2197363E-2,7.7491075E-2,1.03850745E-1,1.4147632E-1,1.0339739E-1,1.3054252E-1,1.5005971E-1],"split_indices":[16,16,16,16,16,16,16,13,16,16,16,9,0,16,16,0,0,0,0,13,13,1,16,7,2,16,7,0,5,16,0,0,0,0,0,0,0,0,0,0,0,0,0,0,0,0,0,0,0,0,0,0,0,0,0],"split_type":[0,0,0,0,0,0,0,0,0,0,0,0,0,0,0,0,0,0,0,0,0,0,0,0,0,0,0,0,0,0,0,0,0,0,0,0,0,0,0,0,0,0,0,0,0,0,0,0,0,0,0,0,0,0,0],"sum_hessian":[4.318E3,1.854E3,2.464E3,2.62E2,1.592E3,9.53E2,1.511E3,1.19E2,1.43E2,6.17E2,9.75E2,3.18E2,6.35E2,9.09E2,6.02E2,2.6E1,9.3E1,4.6E1,9.7E1,2.93E2,3.24E2,4.03E2,5.72E2,2.73E2,4.5E1,3.98E2,2.37E2,6.02E2,3.07E2,5.67E2,3.5E1,7.5E1,1.8E1,9.4E1,1.99E2,7.4E1,2.5E2,3.56E2,4.7E1,2.23E2,3.49E2,1.54E2,1.19E2,3.1E1,1.4E1,2.22E2,1.76E2,4.2E1,1.95E2,4.07E2,1.95E2,7E1,2.37E2,2.49E2,3.18E2],"tree_param":{"num_deleted":"0","num_feature":"17","num_nodes":"55","size_leaf_vector":"1"}},{"base_weights":[4.41237E-3,1.2171081E-1,-2.395316E0,-9.414557E-2,5.0038075E-1,-3.9919713E-1,-2.0034075E0,-3.0373448E-1,6.149344E-1,7.787363E-1,2.953582E-1,-1.4936546E0,-2.7267227E-1,-5.985973E-1,9.450999E-2,9.344193E-1,4.2681903E-1,9.62101E-1,3.9415807E-1,6.2463876E-2,8.2109916E-1,-3.0442393E-1,-1.2852266E0,-1.9811699E-1,-5.3790044E-2,1.1175895E-1,-1.8915063E-2,7.784981E-2,1.4722107E-1,-2.2761151E-2,6.724607E-2,1.2285193E-1,8.604141E-2,2.9235035E-2,1.2416073E-1,-1.8653486E-2,7.787329E-2,1.3489604E-1,5.6715872E-2,-8.935802E-2,-1.4413698E-1],"categories":[],"categories_nodes":[],"categories_segments":[],"categories_sizes":[],"default_left":[0,0,0,0,0,0,0,0,0,0,0,0,0,0,0,0,0,0,0,0,0,0,0,0,0,0,0,0,0,0,0,0,0,0,0,0,0,0,0,0,0],"id":23,"left_children":[1,3,5,7,9,-1,11,13,15,17,19,21,-1,23,25,27,29,31,33,35,37,-1,39,-1,-1,-1,-1,-1,-1,-1,-1,-1,-1,-1,-1,-1,-1,-1,-1,-1,-1],"loss_changes":[1.2261558E3,3.3950638E2,1.190282E2,3.9342285E2,8.583026E1,0E0,5.676471E1,2.3996094E2,3.5901596E1,4.4681854E1,1.0647333E2,2.8082794E1,0E0,9.74538E1,2.5269177E2,1.7553116E1,6.1561615E1,1.0646393E1,1.7582603E1,1.07868706E2,3.5025024E1,0E0,4.1546326E0,0E0,0E0,0E0,0E0,0E0,0E0,0E0,0E0,0E0,0E0,0E0,0E0,0E0,0E0,0E0,0E0,0E0,0E0],"parents":[2147483647,0,0,1,1,2,2,3,3,4,4,6,6,7,7,8,8,9,9,10,10,11,11,13,13,14,14,15,15,16,16,17,17,18,18,19,19,20,20,22,22],"right_children":[2,4,6,8,10,-1,12,14,16,18,20,22,-1,24,26,28,30,32,34,36,38,-1,40,-1,-1,-1,-1,-1,-1,-1,-1,-1,-1,-1,-1,-1,-1,-1,-1,-1,-1],"split_conditions":[1.7786744E0,1.2401582E-1,2.6691622E-1,1.9166945E-1,-1.5985714E-1,-3.9919713E-1,7.151127E-1,5.7011443E-1,-1.4007448E-1,7.5192654E-1,-4.7184026E-1,-2.4122548E-1,-2.7267227E-1,-1.3219937E0,6.858298E-1,1.6404146E0,1.7451765E-2,-1.249075E0,-8.0522645E-1,1.4105927E0,-1.3779036E0,-3.0442393E-1,5.7075495E-1,-1.9811699E-1,-5.3790044E-2,1.1175895E-1,-1.8915063E-2,7.784981E-2,1.4722107E-1,-2.2761151E-2,6.724607E-2,1.2285193E-1,8.604141E-2,2.9235035E-2,1.2416073E-1,-1.8653486E-2,7.787329E-2,1.3489604E-1,5.6715872E-2,-8.935802E-2,-1.4413698E-1],"split_indices":[7,13,12,14,14,0,15,12,12,13,10,15,0,12,7,14,7,12,12,14,7,0,0,0,0,0,0,0,0,0,0,0,0,0,0,0,0,0,0,0,0],"split_type":[0,0,0,0,0,0,0,0,0,0,0,0,0,0,0,0,0,0,0,0,0,0,0,0,0,0,0,0,0,0,0,0,0,0,0,0,0,0,0,0,0],"sum_hessian":[4.354E3,4.152E3,2.02E2,2.645E3,1.507E3,3.8E1,1.64E2,2.042E3,6.03E2,6.38E2,8.69E2,9.8E1,6.6E1,1.173E3,8.69E2,2.22E2,3.81E2,4.31E2,2.07E2,6.03E2,2.66E2,1E1,8.8E1,4.8E1,1.125E3,1.88E2,6.81E2,1.74E2,4.8E1,1.04E2,2.77E2,1.16E2,3.15E2,1.86E2,2.1E1,4.48E2,1.55E2,8.5E1,1.81E2,2.7E1,6.1E1],"tree_param":{"num_deleted":"0","num_feature":"17","num_nodes":"41","size_leaf_vector":"1"}},{"base_weights":[-1.0444603E-2,-9.014743E-1,4.5231062E-1,-1.9770048E0,-6.2640095E-1,9.801309E-2,8.2503855E-1,-2.1152543E-1,-2.3085008E0,-8.575105E-1,-1.3652703E-1,5.601767E-1,-9.45012E-2,5.736859E-1,9.472933E-1,-1.0273083E0,2.1513622E-1,-1.6092792E0,-2.6547954E0,-1.1264422E0,-7.036625E-1,-3.8767686E-1,5.125747E-1,1.0384692E0,4.6030498E-1,-3.4429163E-1,1.0575394E-1,9.04318E-1,3.3130267E-1,1.0506523E0,6.418827E-1,3.2036338E-2,-1.2283554E-1,1.18686296E-1,7.840144E-3,-2.2108749E-1,-1.2538625E-1,-3.0291986E-1,-1.9932085E-1,-9.478568E-2,-1.5043683E-1,4.0904406E-2,-7.635389E-2,1.7504958E-2,-6.0238816E-2,6.888911E-2,-9.406713E-2,1.1262057E-1,4.913133E-2,2.1241583E-2,6.64333E-2,-4.61592E-2,7.0171766E-3,-6.2288344E-3,4.1648373E-2,9.161439E-2,-1.5397645E-2,-1.13906994E-1,3.6371082E-2,6.316399E-2,1.0771149E-1,3.7530772E-2,9.810477E-2],"categories":[],"categories_nodes":[],"categories_segments":[],"categories_sizes":[],"default_left":[0,0,0,0,0,0,0,0,0,0,0,0,0,0,0,0,0,0,0,0,0,0,0,0,0,0,0,0,0,0,0,0,0,0,0,0,0,0,0,0,0,0,0,0,0,0,0,0,0,0,0,0,0,0,0,0,0,0,0,0,0,0,0],"id":24,"left_children":[1,3,5,7,9,11,13,15,17,19,21,23,25,27,29,31,33,35,37,39,41,43,45,47,49,51,53,55,57,59,61,-1,-1,-1,-1,-1,-1,-1,-1,-1,-1,-1,-1,-1,-1,-1,-1,-1,-1,-1,-1,-1,-1,-1,-1,-1,-1,-1,-1,-1,-1,-1,-1],"loss_changes":[1.797336E3,4.3957788E2,3.7878943E2,1.7684216E2,1.3438184E2,1.3102132E2,4.241577E1,1.7276112E1,5.7472534E1,3.259668E1,6.2473038E1,2.020549E1,5.2059097E1,3.6564636E1,2.896698E1,4.999592E0,4.2916193E0,1.5829956E1,3.5823486E1,1.8281738E1,3.4690735E1,3.345279E1,2.8064753E1,2.999092E0,1.806636E1,2.2541931E1,3.020664E1,2.5690155E0,1.3137386E1,7.08136E0,2.1330894E1,0E0,0E0,0E0,0E0,0E0,0E0,0E0,0E0,0E0,0E0,0E0,0E0,0E0,0E0,0E0,0E0,0E0,0E0,0E0,0E0,0E0,0E0,0E0,0E0,0E0,0E0,0E0,0E0,0E0,0E0,0E0,0E0],"parents":[2147483647,0,0,1,1,2,2,3,3,4,4,5,5,6,6,7,7,8,8,9,9,10,10,11,11,12,12,13,13,14,14,15,15,16,16,17,17,18,18,19,19,20,20,21,21,22,22,23,23,24,24,25,25,26,26,27,27,28,28,29,29,30,30],"right_children":[2,4,6,8,10,12,14,16,18,20,22,24,26,28,30,32,34,36,38,40,42,44,46,48,50,52,54,56,58,60,62,-1,-1,-1,-1,-1,-1,-1,-1,-1,-1,-1,-1,-1,-1,-1,-1,-1,-1,-1,-1,-1,-1,-1,-1,-1,-1,-1,-1,-1,-1,-1,-1],"split_conditions":[-2.270264E-1,-1.9467261E0,6.074368E-1,-3.2427526E0,7.379399E-1,-1.8489628E-1,8.085674E-1,-2.8280892E0,-8.1666785E-1,-7.543891E-1,4.5809785E-1,-1.1541741E0,2.1933444E-1,3.1306395E-1,7.5182056E-1,-6.089849E-1,-9.140681E-1,-2.7584198E0,3.8167224E0,7.042097E-1,-1.148009E0,-3.4830332E-1,1.584194E0,1.0419246E0,1.4707397E-1,4.8538247E-1,-6.447058E-2,1.2054391E0,-2.5142548E0,-9.136184E-1,1.2155919E0,3.2036338E-2,-1.2283554E-1,1.18686296E-1,7.840144E-3,-2.2108749E-1,-1.2538625E-1,-3.0291986E-1,-1.9932085E-1,-9.478568E-2,-1.5043683E-1,4.0904406E-2,-7.635389E-2,1.7504958E-2,-6.0238816E-2,6.888911E-2,-9.406713E-2,1.1262057E-1,4.913133E-2,2.1241583E-2,6.64333E-2,-4.61592E-2,7.0171766E-3,-6.2288344E-3,4.1648373E-2,9.161439E-2,-1.5397645E-2,-1.13906994E-1,3.6371082E-2,6.316399E-2,1.0771149E-1,3.7530772E-2,9.810477E-2],"split_indices":[5,5,5,6,0,6,5,5,6,5,15,6,5,6,6,14,7,5,9,7,12,15,7,12,5,0,0,7,3,15,5,0,0,0,0,0,0,0,0,0,0,0,0,0,0,0,0,0,0,0,0,0,0,0,0,0,0,0,0,0,0,0,0],"split_type":[0,0,0,0,0,0,0,0,0,0,0,0,0,0,0,0,0,0,0,0,0,0,0,0,0,0,0,0,0,0,0,0,0,0,0,0,0,0,0,0,0,0,0,0,0,0,0,0,0,0,0,0,0,0,0,0,0,0,0,0,0,0,0],"sum_hessian":[4.357E3,1.489E3,2.868E3,3.02E2,1.187E3,1.471E3,1.397E3,4.8E1,2.54E2,8.06E2,3.81E2,4.32E2,1.039E3,4.59E2,9.38E2,1.6E1,3.2E1,8.6E1,1.68E2,2.91E2,5.15E2,2.75E2,1.06E2,7.3E1,3.59E2,4.62E2,5.77E2,1.93E2,2.66E2,6.99E2,2.39E2,2E0,1.4E1,3E0,2.9E1,3E1,5.6E1,1.05E2,6.3E1,2E2,9.1E1,2.6E1,4.89E2,7.6E1,1.99E2,9.5E1,1.1E1,6.2E1,1.1E1,1.63E2,1.96E2,3.6E2,1.02E2,3.75E2,2.02E2,1.91E2,2E0,5E0,2.61E2,4.3E1,6.56E2,1.35E2,1.04E2],"tree_param":{"num_deleted":"0","num_feature":"17","num_nodes":"63","size_leaf_vector":"1"}},{"base_weights":[-8.851639E-3,-8.52614E-1,6.274036E-1,-1.8532252E0,-5.5936235E-1,2.4034068E-1,9.27658E-1,-2.6211045E0,-1.4557626E0,-8.563746E-1,-3.174515E-1,1.11651756E-1,4.8060545E-1,7.6490676E-1,1.1502337E0,-3.1869897E-1,-2.434353E-1,-1.7857854E-1,-1.3366842E0,-1.0340673E0,-7.3020375E-1,-4.1183147E-1,-1.9924632E-1,4.9412105E-2,4.2564332E-1,3.5848534E-1,5.926944E-1,6.97802E-1,1.0832174E0,1.1022675E0,1.581947E0,-1.392097E-1,-7.743182E-2,-1.0903964E-1,-7.823654E-2,-6.929132E-2,-1.3667874E-1,-3.2254215E-2,-5.390131E-2,-2.5672556E-4,-2.8330041E-2,1.9803716E-2,-5.179411E-3,4.9783275E-2,1.429605E-2,4.787664E-2,2.9389102E-2,2.1340406E-2,6.2558904E-2,6.2336404E-2,8.191734E-2,7.85804E-2,1.2539116E-1,1.7384972E-1,1.0878849E-1,1.3581474E-1,1.8237568E-1],"categories":[],"categories_nodes":[],"categories_segments":[],"categories_sizes":[],"default_left":[0,0,0,0,0,0,0,0,0,0,0,0,0,0,0,0,0,0,0,0,0,0,0,0,0,0,0,0,0,0,0,0,0,0,0,0,0,0,0,0,0,0,0,0,0,0,0,0,0,0,0,0,0,0,0,0,0],"id":25,"left_children":[1,3,5,7,9,11,13,15,17,19,21,23,25,27,29,-1,-1,-1,31,33,35,37,39,41,43,45,47,49,51,53,55,-1,-1,-1,-1,-1,-1,-1,-1,-1,-1,-1,-1,-1,-1,-1,-1,-1,-1,-1,-1,-1,-1,-1,-1,-1,-1],"loss_changes":[2.3164985E3,5.4327783E2,2.8567175E2,1.2436963E2,1.0290546E2,3.321563E1,4.9291016E1,7.248352E0,8.577209E0,1.3683197E1,8.764809E0,1.3697961E1,4.9206543E0,1.6396362E1,1.0328857E1,0E0,0E0,0E0,5.4349976E0,2.9040833E0,8.073578E0,4.822777E0,5.851487E0,8.839781E0,2.296009E0,1.2733402E0,2.2869568E0,5.5064087E0,6.0204773E0,2.9403076E0,5.536041E-1,0E0,0E0,0E0,0E0,0E0,0E0,0E0,0E0,0E0,0E0,0E0,0E0,0E0,0E0,0E0,0E0,0E0,0E0,0E0,0E0,0E0,0E0,0E0,0E0,0E0,0E0],"parents":[2147483647,0,0,1,1,2,2,3,3,4,4,5,5,6,6,7,7,8,8,9,9,10,10,11,11,12,12,13,13,14,14,18,18,19,19,20,20,21,21,22,22,23,23,24,24,25,25,26,26,27,27,28,28,29,29,30,30],"right_children":[2,4,6,8,10,12,14,16,18,20,22,24,26,28,30,-1,-1,-1,32,34,36,38,40,42,44,46,48,50,52,54,56,-1,-1,-1,-1,-1,-1,-1,-1,-1,-1,-1,-1,-1,-1,-1,-1,-1,-1,-1,-1,-1,-1,-1,-1,-1,-1],"split_conditions":[-7.163408E-2,-1.0932157E0,5.766773E-1,-2.438953E0,-6.020707E-1,3.605735E-1,1.097291E0,-3.6206477E0,-2.0558598E0,-8.4764314E-1,-2.4844627E-1,-2.9844484E-1,2.2537638E-1,9.168893E-1,1.3723322E0,-3.1869897E-1,-2.434353E-1,-1.7857854E-1,2.139965E0,-2.9844484E-1,-8.366469E-2,-1.0264612E-1,-8.366469E-2,-5.696657E-1,7.127429E-1,-1.204115E0,-1.376418E0,9.401246E-1,7.04375E-1,2.1933444E-1,4.507687E-3,-1.392097E-1,-7.743182E-2,-1.0903964E-1,-7.823654E-2,-6.929132E-2,-1.3667874E-1,-3.2254215E-2,-5.390131E-2,-2.5672556E-4,-2.8330041E-2,1.9803716E-2,-5.179411E-3,4.9783275E-2,1.429605E-2,4.787664E-2,2.9389102E-2,2.1340406E-2,6.2558904E-2,6.2336404E-2,8.191734E-2,7.85804E-2,1.2539116E-1,1.7384972E-1,1.0878849E-1,1.3581474E-1,1.8237568E-1],"split_indices":[16,16,16,16,16,16,16,16,16,16,16,9,0,0,16,0,0,0,0,9,5,5,5,7,2,0,1,16,16,5,15,0,0,0,0,0,0,0,0,0,0,0,0,0,0,0,0,0,0,0,0,0,0,0,0,0,0],"split_type":[0,0,0,0,0,0,0,0,0,0,0,0,0,0,0,0,0,0,0,0,0,0,0,0,0,0,0,0,0,0,0,0,0,0,0,0,0,0,0,0,0,0,0,0,0,0,0,0,0,0,0,0,0,0,0,0,0],"sum_hessian":[4.313E3,1.854E3,2.459E3,4.19E2,1.435E3,1.075E3,1.384E3,1.41E2,2.78E2,6.43E2,7.92E2,7.01E2,3.74E2,8.02E2,5.82E2,3.1E1,1.1E2,7E1,2.08E2,2.64E2,3.79E2,4.39E2,3.53E2,5.86E2,1.15E2,1.81E2,1.93E2,6.65E2,1.37E2,5.27E2,5.5E1,1.88E2,2E1,2.13E2,5.1E1,3.6E2,1.9E1,2.6E2,1.79E2,1.06E2,2.47E2,2.37E2,3.49E2,9.1E1,2.4E1,6.1E1,1.2E2,1.6E1,1.77E2,4.16E2,2.49E2,5.2E1,8.5E1,9E0,5.18E2,3.2E1,2.3E1],"tree_param":{"num_deleted":"0","num_feature":"17","num_nodes":"57","size_leaf_vector":"1"}},{"base_weights":[-1.0320739E-2,-7.5422233E-1,5.7721776E-1,-1.9540107E0,-5.6001264E-1,2.5402507E-1,8.567217E-1,-2.8408756E0,-1.7447462E0,-8.59672E-1,-2.8621364E-1,9.246463E-2,4.4228128E-1,7.174076E-1,1.0355207E0,-3.2821777E-1,-2.359734E-1,-2.055863E0,-1.4948292E0,-1.0637681E0,-7.1631455E-1,-4.2049193E-1,-1.9871886E-1,3.1905454E-2,3.7667754E-1,3.339133E-1,5.603049E-1,6.572388E-1,1.069296E0,9.6754706E-1,1.3012037E0,-2.0715606E-1,-2.97987E-2,-1.5890093E-1,-1.16103046E-1,-1.0991067E-1,-5.3352583E-2,-6.6134684E-2,-1.015471E-1,-3.713629E-2,-7.578928E-2,-1.773507E-2,-5.8390018E-2,-3.5352667E-3,2.0462701E-2,4.4277675E-2,1.44805005E-2,3.730198E-2,1.2835354E-2,7.2305135E-2,4.860823E-2,1.4125358E-1,6.464155E-2,1.16958044E-1,8.5337915E-2,7.018267E-2,9.9585496E-2,1.2002808E-1,1.7054352E-1],"categories":[],"categories_nodes":[],"categories_segments":[],"categories_sizes":[],"default_left":[0,0,0,0,0,0,0,0,0,0,0,0,0,0,0,0,0,0,0,0,0,0,0,0,0,0,0,0,0,0,0,0,0,0,0,0,0,0,0,0,0,0,0,0,0,0,0,0,0,0,0,0,0,0,0,0,0,0,0],"id":26,"left_children":[1,3,5,7,9,11,13,15,17,19,21,23,25,27,29,-1,-1,31,33,35,37,39,41,43,45,47,49,51,53,55,57,-1,-1,-1,-1,-1,-1,-1,-1,-1,-1,-1,-1,-1,-1,-1,-1,-1,-1,-1,-1,-1,-1,-1,-1,-1,-1,-1,-1],"loss_changes":[1.8868331E3,4.4279077E2,2.1766705E2,4.422461E1,1.3439215E2,3.402363E1,3.1464722E1,2.659027E0,1.3799316E1,2.2147583E1,1.000853E1,1.038385E1,6.425331E0,1.4753326E1,8.926575E0,0E0,0E0,1.9766235E0,2.0533142E0,5.4284973E0,6.9419556E0,5.321293E0,4.192829E0,5.8040805E0,1.560502E0,2.138651E0,2.6200867E0,4.2043457E0,1.2754898E0,2.7085266E0,2.522171E0,0E0,0E0,0E0,0E0,0E0,0E0,0E0,0E0,0E0,0E0,0E0,0E0,0E0,0E0,0E0,0E0,0E0,0E0,0E0,0E0,0E0,0E0,0E0,0E0,0E0,0E0,0E0,0E0],"parents":[2147483647,0,0,1,1,2,2,3,3,4,4,5,5,6,6,7,7,8,8,9,9,10,10,11,11,12,12,13,13,14,14,17,17,18,18,19,19,20,20,21,21,22,22,23,23,24,24,25,25,26,26,27,27,28,28,29,29,30,30],"right_children":[2,4,6,8,10,12,14,16,18,20,22,24,26,28,30,-1,-1,32,34,36,38,40,42,44,46,48,50,52,54,56,58,-1,-1,-1,-1,-1,-1,-1,-1,-1,-1,-1,-1,-1,-1,-1,-1,-1,-1,-1,-1,-1,-1,-1,-1,-1,-1,-1,-1],"split_conditions":[-5.1988278E-2,-1.5254233E0,6.650834E-1,-4.5156902E-1,-6.3153934E-1,3.3110482E-1,1.1120254E0,7.370739E-1,-2.438953E0,-9.0658057E-1,-3.4667528E-1,-2.9844484E-1,2.2537638E-1,9.168893E-1,1.3232177E0,-3.2821777E-1,-2.359734E-1,1.5811459E0,1.0658598E0,2.2155745E0,1.5999962E0,9.893846E-1,4.5645162E-1,1.5459341E-1,7.2652256E-1,1.0658598E0,-3.9004672E-1,-1.1946011E-1,1.6334785E-2,-1.3091506E0,1.4410925E0,-2.0715606E-1,-2.97987E-2,-1.5890093E-1,-1.16103046E-1,-1.0991067E-1,-5.3352583E-2,-6.6134684E-2,-1.015471E-1,-3.713629E-2,-7.578928E-2,-1.773507E-2,-5.8390018E-2,-3.5352667E-3,2.0462701E-2,4.4277675E-2,1.44805005E-2,3.730198E-2,1.2835354E-2,7.2305135E-2,4.860823E-2,1.4125358E-1,6.464155E-2,1.16958044E-1,8.5337915E-2,7.018267E-2,9.9585496E-2,1.2002808E-1,1.7054352E-1],"split_indices":[16,16,16,13,16,16,16,10,16,16,16,9,0,0,16,0,0,12,14,14,8,2,5,0,2,14,14,5,10,14,16,0,0,0,0,0,0,0,0,0,0,0,0,0,0,0,0,0,0,0,0,0,0,0,0,0,0,0,0],"split_type":[0,0,0,0,0,0,0,0,0,0,0,0,0,0,0,0,0,0,0,0,0,0,0,0,0,0,0,0,0,0,0,0,0,0,0,0,0,0,0,0,0,0,0,0,0,0,0,0,0,0,0,0,0,0,0,0,0,0,0],"sum_hessian":[4.315E3,1.904E3,2.411E3,2.64E2,1.64E3,1.119E3,1.292E3,4.8E1,2.16E2,7.82E2,8.58E2,6.03E2,5.16E2,7.29E2,5.63E2,2.2E1,2.6E1,9.3E1,1.23E2,3.2E2,4.62E2,3.37E2,5.21E2,4.98E2,1.05E2,2.71E2,2.45E2,6.25E2,1.04E2,4.52E2,1.11E2,9.2E1,1E0,9.3E1,3E1,2.99E2,2.1E1,3.93E2,6.9E1,2.96E2,4.1E1,4.95E2,2.6E1,3.59E2,1.39E2,8.1E1,2.4E1,2.27E2,4.4E1,7.4E1,1.71E2,7E0,6.18E2,6.8E1,3.6E1,4.6E1,4.06E2,9.2E1,1.9E1],"tree_param":{"num_deleted":"0","num_feature":"17","num_nodes":"59","size_leaf_vector":"1"}},{"base_weights":[-5.7873316E-3,-6.284279E-1,5.556889E-1,-1.4515584E0,-4.0734813E-1,2.7806953E-1,7.91032E-1,-2.1331985E0,-1.1552926E0,-6.599581E-1,-2.099305E-1,1.3429698E-1,4.357466E-1,6.573692E-1,9.3258905E-1,-3.0751905E-1,-1.9642689E0,-6.715175E-1,-1.207767E0,-8.1807375E-1,-5.674872E-1,-2.9815075E-1,-1.03472434E-1,3.1503978E-1,4.6255633E-2,3.2899648E-1,5.357644E-1,6.0062087E-1,9.6219814E-1,8.941826E-1,1.3000946E-1,-2.058798E-1,-1.3882424E-1,-7.841135E-2,-3.8527854E-2,-1.2319149E-1,-3.6255054E-2,-8.7161444E-2,-5.6455947E-2,-5.1532306E-2,-9.1115996E-2,-1.4783126E-2,-3.6604427E-2,-5.2947034E-3,-2.6533524E-2,9.001533E-3,5.1756173E-2,1.20116E-2,-1.2001199E-2,3.9033E-2,2.3584139E-2,4.8166145E-2,6.9993354E-2,5.7733413E-2,9.394834E-2,5.4932147E-2,1.00808695E-1,8.8290505E-2,1.6283777E-1],"categories":[],"categories_nodes":[],"categories_segments":[],"categories_sizes":[],"default_left":[0,0,0,0,0,0,0,0,0,0,0,0,0,0,0,0,0,0,0,0,0,0,0,0,0,0,0,0,0,0,0,0,0,0,0,0,0,0,0,0,0,0,0,0,0,0,0,0,0,0,0,0,0,0,0,0,0,0,0],"id":27,"left_children":[1,3,5,7,9,11,13,15,17,19,21,23,25,27,29,-1,31,33,35,37,39,41,43,45,47,49,51,53,55,57,-1,-1,-1,-1,-1,-1,-1,-1,-1,-1,-1,-1,-1,-1,-1,-1,-1,-1,-1,-1,-1,-1,-1,-1,-1,-1,-1,-1,-1],"loss_changes":[1.5092139E3,3.7191663E2,1.4809235E2,8.4978455E1,8.040097E1,2.3585915E1,2.2621887E1,1.4646484E1,6.90625E0,9.887482E0,8.4968605E0,8.689753E0,5.1301575E0,1.0406647E1,7.2214966E0,0E0,3.2948914E0,7.2923756E-1,5.1253357E0,3.0234222E0,7.5977783E0,5.007927E0,3.3635411E0,8.110868E0,4.545952E0,1.2963314E0,1.9277954E0,3.7029724E0,1.3029785E0,3.0417786E0,0E0,0E0,0E0,0E0,0E0,0E0,0E0,0E0,0E0,0E0,0E0,0E0,0E0,0E0,0E0,0E0,0E0,0E0,0E0,0E0,0E0,0E0,0E0,0E0,0E0,0E0,0E0,0E0,0E0],"parents":[2147483647,0,0,1,1,2,2,3,3,4,4,5,5,6,6,7,7,8,8,9,9,10,10,11,11,12,12,13,13,14,14,16,16,17,17,18,18,19,19,20,20,21,21,22,22,23,23,24,24,25,25,26,26,27,27,28,28,29,29],"right_children":[2,4,6,8,10,12,14,16,18,20,22,24,26,28,30,-1,32,34,36,38,40,42,44,46,48,50,52,54,56,58,-1,-1,-1,-1,-1,-1,-1,-1,-1,-1,-1,-1,-1,-1,-1,-1,-1,-1,-1,-1,-1,-1,-1,-1,-1,-1,-1,-1,-1],"split_conditions":[4.624072E-2,-1.0696406E0,6.945521E-1,-2.438953E0,-5.6277907E-1,3.703964E-1,1.097291E0,-3.7355757E0,-1.0035485E0,-8.3782023E-1,-1.9933178E-1,-8.2828104E-1,1.4842775E-1,8.9765745E-1,1.3723322E0,-3.0751905E-1,1.7260782E0,-1.2700279E0,-6.604374E-2,-2.9844484E-1,1.3556578E0,-7.0321274E-1,5.7051396E-1,-1.3779036E0,2.2523049E-1,6.296894E-2,-2.9844484E-1,7.4218994E-1,-5.162441E-1,1.245053E0,1.3000946E-1,-2.058798E-1,-1.3882424E-1,-7.841135E-2,-3.8527854E-2,-1.2319149E-1,-3.6255054E-2,-8.7161444E-2,-5.6455947E-2,-5.1532306E-2,-9.1115996E-2,-1.4783126E-2,-3.6604427E-2,-5.2947034E-3,-2.6533524E-2,9.001533E-3,5.1756173E-2,1.20116E-2,-1.2001199E-2,3.9033E-2,2.3584139E-2,4.8166145E-2,6.9993354E-2,5.7733413E-2,9.394834E-2,5.4932147E-2,1.00808695E-1,8.8290505E-2,1.6283777E-1],"split_indices":[16,16,16,16,16,16,16,16,14,16,16,7,0,0,16,0,0,16,13,9,8,7,2,7,2,13,9,9,1,1,0,0,0,0,0,0,0,0,0,0,0,0,0,0,0,0,0,0,0,0,0,0,0,0,0,0,0,0,0],"split_type":[0,0,0,0,0,0,0,0,0,0,0,0,0,0,0,0,0,0,0,0,0,0,0,0,0,0,0,0,0,0,0,0,0,0,0,0,0,0,0,0,0,0,0,0,0,0,0,0,0,0,0,0,0,0,0,0,0,0,0],"sum_hessian":[4.315E3,2.046E3,2.269E3,4.32E2,1.614E3,1.042E3,1.227E3,1.29E2,3.03E2,7.07E2,9.07E2,5.46E2,4.96E2,6.34E2,5.93E2,1.7E1,1.12E2,3.1E1,2.72E2,2.58E2,4.49E2,4.95E2,4.12E2,1.78E2,3.68E2,2.42E2,2.54E2,5.37E2,9.7E1,5.4E2,5.3E1,9.4E1,1.8E1,2.1E1,1E1,2.64E2,8E0,2.11E2,4.7E1,3.92E2,5.7E1,1.55E2,3.4E2,3.15E2,9.7E1,8.5E1,9.3E1,2.55E2,1.13E2,1.44E2,9.8E1,1.94E2,6E1,5.05E2,3.2E1,1.1E1,8.6E1,5.34E2,6E0],"tree_param":{"num_deleted":"0","num_feature":"17","num_nodes":"59","size_leaf_vector":"1"}},{"base_weights":[3.947221E-3,-4.2351168E-1,3.9983934E-1,-1.1831131E0,-2.6562136E-1,2.2658217E-1,6.097077E-1,-1.5517585E0,-5.626709E-1,-4.0627044E-1,8.5684866E-2,3.15083E-2,4.0494707E-1,4.3144077E-1,7.0562553E-1,-2.123429E0,-1.2725948E0,-7.487592E-1,4.831783E-1,-6.261185E-1,-2.5010893E-1,-7.317226E-2,4.2713726E-1,-4.2286927E-1,8.1840575E-2,2.7694574E-1,5.966186E-1,3.032017E-1,7.1040154E-1,6.466201E-1,8.4577614E-1,-2.584357E-1,-1.8689337E-1,-1.5702432E-1,-9.957256E-2,-1.4284438E-1,-5.3414978E-2,6.8105936E-2,-1.2503433E-2,1.956868E-2,-6.530772E-2,-3.8879752E-2,5.4062787E-4,-1.2557087E-2,1.2464523E-1,7.528444E-2,2.0083522E-2,-8.715468E-2,-2.8976977E-2,-2.6458239E-3,2.4164142E-2,8.807817E-3,4.25371E-2,6.79968E-2,4.2298224E-2,3.2533906E-2,-8.33313E-2,1.4420142E-3,7.937751E-2,5.710358E-2,7.367616E-2,1.2976639E-1,7.944632E-2],"categories":[],"categories_nodes":[],"categories_segments":[],"categories_sizes":[],"default_left":[0,0,0,0,0,0,0,0,0,0,0,0,0,0,0,0,0,0,0,0,0,0,0,0,0,0,0,0,0,0,0,0,0,0,0,0,0,0,0,0,0,0,0,0,0,0,0,0,0,0,0,0,0,0,0,0,0,0,0,0,0,0,0],"id":28,"left_children":[1,3,5,7,9,11,13,15,17,19,21,23,25,27,29,31,33,35,37,39,41,43,45,47,49,51,53,55,57,59,61,-1,-1,-1,-1,-1,-1,-1,-1,-1,-1,-1,-1,-1,-1,-1,-1,-1,-1,-1,-1,-1,-1,-1,-1,-1,-1,-1,-1,-1,-1,-1,-1],"loss_changes":[7.327557E2,2.4938773E2,8.160184E1,8.1009735E1,8.52686E1,4.2888664E1,1.7068115E1,3.3045837E1,2.6635536E1,4.2140182E1,2.6826874E1,1.3527822E1,1.5634796E1,1.2591576E1,4.9028015E0,3.6159363E0,1.10451355E1,1.6011665E1,2.612585E0,1.1448898E1,2.558765E1,2.3528034E1,1.1420986E1,3.2708607E0,9.213314E0,1.0839224E1,3.431816E0,6.485483E0,6.4875145E0,2.7678986E0,3.4210968E0,0E0,0E0,0E0,0E0,0E0,0E0,0E0,0E0,0E0,0E0,0E0,0E0,0E0,0E0,0E0,0E0,0E0,0E0,0E0,0E0,0E0,0E0,0E0,0E0,0E0,0E0,0E0,0E0,0E0,0E0,0E0,0E0],"parents":[2147483647,0,0,1,1,2,2,3,3,4,4,5,5,6,6,7,7,8,8,9,9,10,10,11,11,12,12,13,13,14,14,15,15,16,16,17,17,18,18,19,19,20,20,21,21,22,22,23,23,24,24,25,25,26,26,27,27,28,28,29,29,30,30],"right_children":[2,4,6,8,10,12,14,16,18,20,22,24,26,28,30,32,34,36,38,40,42,44,46,48,50,52,54,56,58,60,62,-1,-1,-1,-1,-1,-1,-1,-1,-1,-1,-1,-1,-1,-1,-1,-1,-1,-1,-1,-1,-1,-1,-1,-1,-1,-1,-1,-1,-1,-1,-1,-1],"split_conditions":[1.5848489E-1,-1.5514265E0,7.658026E-1,1.4918238E0,7.379399E-1,1.3135526E-1,-6.508306E-1,-2.642714E0,1.4179634E0,-4.350664E-1,4.5809785E-1,-1.5856103E0,5.1633257E-1,1.2318186E0,1.4885688E-1,-2.8911567E-1,7.8473747E-1,-2.8280892E0,4.7911918E-1,-9.6322644E-1,5.025015E-1,1.5451876E0,-7.392427E-1,-2.5086598E0,6.1350864E-1,-1.0193255E-1,9.557508E-2,5.042385E0,-2.5086598E0,1.0376234E0,4.6323526E-1,-2.584357E-1,-1.8689337E-1,-1.5702432E-1,-9.957256E-2,-1.4284438E-1,-5.3414978E-2,6.8105936E-2,-1.2503433E-2,1.956868E-2,-6.530772E-2,-3.8879752E-2,5.4062787E-4,-1.2557087E-2,1.2464523E-1,7.528444E-2,2.0083522E-2,-8.715468E-2,-2.8976977E-2,-2.6458239E-3,2.4164142E-2,8.807817E-3,4.25371E-2,6.79968E-2,4.2298224E-2,3.2533906E-2,-8.33313E-2,1.4420142E-3,7.937751E-2,5.710358E-2,7.367616E-2,1.2976639E-1,7.944632E-2],"split_indices":[5,5,5,0,0,1,2,5,2,5,15,2,5,5,2,12,1,5,14,12,1,1,12,2,5,0,12,4,2,5,11,0,0,0,0,0,0,0,0,0,0,0,0,0,0,0,0,0,0,0,0,0,0,0,0,0,0,0,0,0,0,0,0],"split_type":[0,0,0,0,0,0,0,0,0,0,0,0,0,0,0,0,0,0,0,0,0,0,0,0,0,0,0,0,0,0,0,0,0,0,0,0,0,0,0,0,0,0,0,0,0,0,0,0,0,0,0,0,0,0,0,0,0,0,0,0,0,0,0],"sum_hessian":[4.328E3,2.081E3,2.247E3,3.57E2,1.724E3,1.232E3,1.015E3,2.23E2,1.34E2,1.231E3,4.93E2,5.89E2,6.43E2,3.57E2,6.58E2,7.1E1,1.52E2,1.14E2,2E1,5.1E2,7.21E2,3.37E2,1.56E2,5.8E1,5.31E2,3.87E2,2.56E2,2.46E2,1.11E2,4.67E2,1.91E2,2.2E1,4.9E1,7.1E1,8.1E1,2.6E1,8.8E1,1.5E1,5E0,1.6E1,4.94E2,4.67E2,2.54E2,3.25E2,1.2E1,6.3E1,9.3E1,1.2E1,4.6E1,3.17E2,2.14E2,1.71E2,2.16E2,1.71E2,8.5E1,2.42E2,4E0,1.2E1,9.9E1,2.58E2,2.09E2,1.7E1,1.74E2],"tree_param":{"num_deleted":"0","num_feature":"17","num_nodes":"63","size_leaf_vector":"1"}},{"base_weights":[2.2570132E-3,-5.0572723E-1,4.5578966E-1,-1.0925012E0,-3.1158465E-1,1.8165179E-1,6.1452496E-1,-1.6071824E0,-8.729764E-1,-5.225719E-1,-1.701326E-1,8.6734526E-2,3.3116424E-1,4.9774128E-1,7.525439E-1,-2.08443E-1,-1.4041656E0,-5.5666E-1,-9.065081E-1,-2.7653423E-1,-5.825317E-1,-2.0295134E-1,7.711715E-2,1.5593237E-1,-8.684612E-2,4.9421212E-1,2.4623579E-1,4.531933E-1,7.013342E-1,7.1247137E-1,1.0101233E0,-1.501214E-1,-9.76019E-2,-6.528818E-2,-2.6987389E-2,-1.0275649E-1,-7.719668E-2,-4.227643E-2,-1.8053979E-2,-5.365127E-2,-8.1512436E-2,-2.9380579E-2,-1.2803513E-2,-4.139824E-2,1.3646488E-2,-1.5068623E-3,2.5195852E-2,-1.5935382E-2,7.2358805E-3,3.254255E-2,6.727819E-2,3.3370037E-2,5.3794417E-3,4.2517982E-2,6.322916E-2,5.067561E-2,7.852371E-2,1.0607847E-1,6.921401E-2,7.246221E-2,1.101403E-1],"categories":[],"categories_nodes":[],"categories_segments":[],"categories_sizes":[],"default_left":[0,0,0,0,0,0,0,0,0,0,0,0,0,0,0,0,0,0,0,0,0,0,0,0,0,0,0,0,0,0,0,0,0,0,0,0,0,0,0,0,0,0,0,0,0,0,0,0,0,0,0,0,0,0,0,0,0,0,0,0,0],"id":29,"left_children":[1,3,5,7,9,11,13,15,17,19,21,23,25,27,29,-1,31,33,35,37,39,41,43,45,47,49,51,53,55,57,59,-1,-1,-1,-1,-1,-1,-1,-1,-1,-1,-1,-1,-1,-1,-1,-1,-1,-1,-1,-1,-1,-1,-1,-1,-1,-1,-1,-1,-1,-1],"loss_changes":[1.0008031E3,2.3307709E2,9.9756195E1,5.6106445E1,4.5901596E1,1.1934553E1,2.304535E1,1.1703369E1,3.3031616E0,8.955887E0,7.513378E0,6.223439E0,4.4064064E0,6.847168E0,6.134033E0,0E0,3.0638428E0,8.4482193E-1,4.4675293E0,1.650259E0,4.871689E0,5.5164604E0,3.2333689E0,6.0794077E0,1.7199808E0,3.1266212E0,3.63455E0,2.9973297E0,1.8876724E0,3.3589783E0,1.4691544E0,0E0,0E0,0E0,0E0,0E0,0E0,0E0,0E0,0E0,0E0,0E0,0E0,0E0,0E0,0E0,0E0,0E0,0E0,0E0,0E0,0E0,0E0,0E0,0E0,0E0,0E0,0E0,0E0,0E0,0E0],"parents":[2147483647,0,0,1,1,2,2,3,3,4,4,5,5,6,6,7,7,8,8,9,9,10,10,11,11,12,12,13,13,14,14,16,16,17,17,18,18,19,19,20,20,21,21,22,22,23,23,24,24,25,25,26,26,27,27,28,28,29,29,30,30],"right_children":[2,4,6,8,10,12,14,16,18,20,22,24,26,28,30,-1,32,34,36,38,40,42,44,46,48,50,52,54,56,58,60,-1,-1,-1,-1,-1,-1,-1,-1,-1,-1,-1,-1,-1,-1,-1,-1,-1,-1,-1,-1,-1,-1,-1,-1,-1,-1,-1,-1,-1,-1],"split_conditions":[5.606362E-2,-9.6551794E-1,5.668544E-1,-2.2817864E0,-5.6277907E-1,1.0912423E-1,1.0678223E0,-4.774203E-1,-1.0035485E0,4.6323526E-1,-2.9844484E-1,3.383431E-1,-7.392427E-1,9.168893E-1,1.3428634E0,-2.08443E-1,1.8308333E0,-1.2700279E0,-1.1717988E0,-7.7888286E-1,1.5423464E0,-2.2880048E-1,-2.0972376E0,2.0340712E-1,1.2751856E0,-5.4862457E-3,7.5143434E-2,3.742832E-1,6.847292E-1,-1.1541741E0,-1.3219937E0,-1.501214E-1,-9.76019E-2,-6.528818E-2,-2.6987389E-2,-1.0275649E-1,-7.719668E-2,-4.227643E-2,-1.8053979E-2,-5.365127E-2,-8.1512436E-2,-2.9380579E-2,-1.2803513E-2,-4.139824E-2,1.3646488E-2,-1.5068623E-3,2.5195852E-2,-1.5935382E-2,7.2358805E-3,3.254255E-2,6.727819E-2,3.3370037E-2,5.3794417E-3,4.2517982E-2,6.322916E-2,5.067561E-2,7.852371E-2,1.0607847E-1,6.921401E-2,7.246221E-2,1.101403E-1],"split_indices":[16,16,16,16,16,0,16,13,14,11,9,14,12,0,16,0,0,16,16,16,8,16,6,16,13,15,13,15,16,6,12,0,0,0,0,0,0,0,0,0,0,0,0,0,0,0,0,0,0,0,0,0,0,0,0,0,0,0,0,0,0],"split_type":[0,0,0,0,0,0,0,0,